solver_type L2R_L2LOSS_SVR
nr_class 2
nr_feature 4096
bias -1
w
0.2401015310074247 
0.1597537904218741 
0.1958338641407576 
0.1884386464504728 
0.0349047959736149 
-0.5300284475781313 
-0.4688903643689986 
0.1963628075411297 
0.2094088687036463 
0.2035787537761945 
0.4504255677679722 
0.359280094255645 
0.1055077983174034 
-0.3989454388211068 
0.1135525536494367 
0.7304686190517041 
0.1912256959119343 
-0.1643902813007794 
0.1247317711365467 
0.1148678831538311 
-0.2192094501998311 
0.04782942569983914 
-0.4953125809450691 
-0.01138174590659968 
-0.2434867680671829 
-0.1659780124933659 
-0.3674828846951341 
0.4048813616525909 
-0.125568327831587 
0.5167130155025883 
-0.3888309410336023 
0.8651252865376704 
0.2654377178166136 
-0.2798732665906884 
-0.2286483423385844 
0.7562055111009115 
0.3693000836234136 
-0.2158278682596945 
0.02291989916851922 
0.2121834635637162 
-0.003203275118498189 
0.07234373578944114 
0.01727521848396947 
-0.3975664241273329 
0.176929837180946 
-0.3502036338785445 
-0.08590417297961894 
-0.1164147276069795 
0.005716587391551342 
0.03470211071333396 
0.1650271829713109 
-0.134150786042724 
0.3795745010963797 
0.09768164528205389 
0.1581179678720245 
0.218931289349189 
-0.31629074363842 
-0.1871876324566778 
0.7691727099430146 
0.2535045612424399 
0.312076337717699 
-0.3183853065760325 
-0.7228663274015811 
-0.1245127642182727 
-0.07120409132355247 
-0.1322056047542546 
-0.1109791246215253 
-0.3709999299495846 
-0.2730310648761773 
0.03123781612950029 
-0.9124715830862786 
0.1700553494432233 
0.1385782342175731 
0.3204560592535823 
-0.1279989130462074 
0.2764360754031562 
0.3936596443433433 
0.3578171372098833 
0.0484441537110092 
0.4581445250100755 
-0.3351231601749259 
-0.03360487189499921 
0.3832699756417481 
-0.2108556723365356 
0.3643374274505816 
0.3671252229253237 
0.2268847810660972 
0.1028904809788461 
0.2118439209900393 
-0.1885464142445393 
-0.5562804195581708 
0.5146041910447827 
-0.2405872693471706 
0.1572953323449241 
-0.02153864153906237 
-0.09394519356429834 
0.09979871489377481 
-0.1205216952863812 
0.01511419873922037 
0.1102772828240493 
-0.1449288354679177 
-0.2921712286972349 
-0.03728682900605877 
-0.3256329779516945 
0.4912459911888932 
0.1668021152887931 
-0.3100809865314909 
0.2232777921856415 
-0.1576692659276829 
-0.3755678710909456 
-0.3992822418574064 
-0.1692027544066606 
-0.7686680353710704 
-0.2832895561616928 
-0.5248268473998103 
0.1679741829390786 
0.5706225322564829 
0.187111776695812 
0.02009375538891831 
0.1648307862520699 
0.9678687330440969 
0.658737472507312 
0.0911864355953976 
0.4084184037254739 
-0.2733550844577577 
-0.1182663283055969 
-0.331941427326244 
-0.3734829184525704 
0.1161859203308108 
0.2692069734551297 
-0.218086698300499 
-0.354739573334128 
0.2140090586396151 
-0.1617395620047132 
-0.1162060489416918 
0.1200854867344854 
-0.08922782198948469 
0.7003328000787055 
0.03939550103037599 
-0.06456700812392785 
-0.2573016716643644 
0.03135490617923905 
-0.2599620137739858 
0.1444926080768667 
0.6165854818625036 
0.120562633559533 
-0.05049000303977219 
0.1412038255507815 
0.06487753010785392 
-0.1974461208193826 
-0.06194657193774285 
0.3320414031284788 
-0.2824244749901604 
0.7938198667213852 
-0.227106470174729 
-0.007677071743182811 
-0.400361126280281 
0.1016529099112217 
-0.03168875598671346 
-0.0280689403655548 
-0.1025484016087981 
-0.161018120291143 
-0.3288159890097581 
-0.1401883291516593 
-0.2790058171324968 
0.5039752978111885 
0.4792882414211866 
-0.2644967649766178 
0.2828610663530934 
0.3597695454599337 
0.2711458226195255 
0.4547282404381583 
0.03587408795973686 
-0.6228235181266759 
-0.4196515368795048 
-0.4100271740072752 
0.0192204151813108 
-0.2774601556185823 
-0.08347070259766246 
-0.4138671375850137 
0.3131384423628699 
-0.2064553947914992 
0.1568684099399845 
1.401743627909474 
0.5427272358341125 
-0.4724384655527216 
-0.002588125265519992 
0.2083898269161203 
0.06332828420365139 
-0.6421782507745372 
0.1414608387577452 
0.2673892431216816 
0.424224715121199 
-0.4281370741698582 
0.3825881567871955 
-0.2676353489307102 
-0.211769811104714 
0.1678905877036514 
-0.4094631450578212 
0.4480526805757969 
0.2639723796664792 
-0.246801110075088 
-0.2981190510953993 
-0.1892941798743627 
0.4007708995196003 
0.02315380106822061 
-0.2091115330184654 
0.2340217405988607 
-0.2698954699133458 
0.2825574389746959 
0.2536951064977566 
0.1439057793621791 
-0.2077705920411418 
0.1181942211304073 
0.1588278104504443 
0.05515608764496674 
-0.1660756191814602 
0.2841421244968017 
-0.4923138132808573 
0.3244544547718334 
0.4856995169244344 
0.3286128325887496 
-0.05126600973829804 
0.05722276006044736 
0.4144475184795849 
0.5354883733147253 
0.6703179932408888 
0.4430661063612485 
0.8318176353610358 
-0.0217357626242396 
0.3492940946886035 
-0.2316277555779084 
0.2479756582318031 
-0.2058358678606277 
-0.1983073214744418 
-0.4140352348828793 
-0.3241064771430292 
-0.117493367304013 
0.1803441078002923 
-0.7140892604120557 
0.2273216956885928 
-0.002122023994425577 
-0.1593400696567672 
0.1922563139279931 
0.338993667715232 
-0.05480231522084149 
-0.2143778974780702 
-0.3043611920821653 
-0.02003453128915185 
0.3640017200537904 
0.3397424533998543 
1.112414293444386 
-0.08925495398169839 
0.4896895355004117 
0.06240169798572055 
0.2180394964658906 
0.7613858341317128 
-0.07252982651573633 
0.5718013117281516 
-0.7916233621703554 
0.4941741805619051 
1.079420189258513 
0.3774039655992228 
0.00960948006379575 
0.2567033536391016 
0.6045052446228987 
0.6795705999151385 
-0.3257066954180014 
-0.0583314801930947 
0.2364689198028253 
0.1367934943244581 
0.004269188339565411 
0.2076311985424328 
0.01913749481901249 
-0.0049915199594225 
0.3896523972850618 
0.4532910229175613 
0.05903624578131246 
-0.7341188916749575 
-0.4416295915636629 
0.03985778861700313 
0.09602203282098633 
-0.04864026859638382 
-0.4009079411402147 
-0.1469097281599057 
-0.2351742894183491 
-0.02935009816074664 
0.3062527910642256 
0.4748867976684396 
0.1510051660290649 
0.3590417080137677 
0.005762355455120896 
0.5482916823825956 
1.146330342736494 
0.2558221643230054 
0.273528338019565 
0.4292236565413414 
0.3735674039067317 
0.6643106593034722 
-0.3339690748010405 
-0.04398395817482185 
-0.09048037288249064 
-0.6031604410400347 
0.2016167588691901 
-0.2581557441119014 
-0.14071606008826 
-0.2823276656742737 
0.4178477605279017 
0.4558975414715705 
-0.4503161438727519 
-0.04008131415405466 
-0.1829591812210817 
0.2182490027690362 
0.2117657126458621 
0.06580144622515183 
-0.1931732162847628 
0.2160284257180103 
0.09141297632696865 
0.3331114840022372 
-0.6475223831122783 
0.1436632366713717 
0.7281821770012906 
0.5268275795261206 
0.6129330726050719 
0.01364009563554124 
-0.01328098446241034 
-0.04807739540356257 
-0.1369922364533159 
0.002038398292089045 
-0.6769263499335667 
0.2642472585834398 
-0.1640340640715708 
-0.6015731900106862 
-0.155779744460908 
0.1660809551956951 
0.4108480367178081 
-0.06306573474471147 
0.05714494063721503 
0.5952722483987488 
0.213503747887358 
0.07099163620293339 
-0.03622267956504159 
-0.5656823505812163 
0.2749003181657151 
-0.1550017071577937 
-0.217432843048805 
-0.2983818207150694 
0.5438480230677416 
0.4920522865226185 
0.3707934948444446 
0.07451531014815752 
0.7147636082485498 
0.8158994087150012 
0.1302921287399933 
0.4038344463856458 
0.09867403019797413 
-0.3279413419904021 
-0.1023853630249439 
-0.1684414827754379 
-0.09037607689610738 
0.2985933525084665 
0.1476130932236045 
0.2282119576791882 
0.1393099599883444 
0.4661636467772933 
-0.5661766062605095 
-0.05427271848529702 
0.5658678278780995 
-0.3716203358540489 
0.3691264270397948 
0.3747732488401522 
0.5076243243264963 
-0.1480902322246785 
0.2827071247304638 
0.1852092941351562 
-0.5455674296529075 
0.03736109904114345 
0.323394437609194 
-0.6523612988940847 
0.4371573015986012 
-0.3171647289052734 
-0.1909138348005932 
-0.1451155634209626 
0.4099448106307131 
-0.06191233986484165 
0.3345628563006305 
-0.3519236616198021 
-0.5492186017038009 
-0.3265105455324888 
0.2092308450728794 
-0.4124419344310432 
0.6280843170755381 
0.5848975198625928 
-0.7241209909375168 
-0.09765528115723457 
0.004100391642962273 
0.06497589475705713 
0.7838821713977475 
0.00947041353114942 
0.3727603789863005 
-0.05418262741749783 
-0.3992835028506039 
-0.7312783407031778 
-0.08398677698641266 
-0.2697193029714364 
0.344998511892027 
-0.01627013488946686 
0.1712878386093414 
-0.1474355162937822 
0.3230513312380166 
-0.01882486188266155 
-0.08843862284876414 
-0.02986770173182255 
0.0927157609121846 
-0.4495261289449904 
-0.5406426457822815 
0.4500597678050615 
0.2445542577789901 
0.3066151526147193 
0.04401583600452074 
0.06887617059960691 
0.5643280157996253 
-0.284847191496146 
0.5324604528816671 
0.4899751131706665 
0.719511160558074 
-0.06901513204769805 
-0.06189378671079952 
-0.522804133512152 
0.6505881213194162 
0.1491609414749143 
0.414082758489148 
0.2215585767489275 
-0.2748604768136833 
0.2194909899236402 
0.4488528104441079 
0.276739521692788 
0.3176407894081268 
0.4016457097243321 
-0.6170338061783794 
-0.01246283322113109 
0.4981295037928624 
0.03569653731747216 
-0.09381360934553132 
0.04251877562934815 
-0.2586599242479195 
-0.1029409594829498 
-0.1269296591620772 
0.4628021527515024 
0.2560033247217793 
0.4030213013000808 
0.8867964453822608 
0.4283855423852083 
-0.4316603992065346 
-0.5463908533424554 
-0.282218254823784 
-0.02678816496429763 
-0.01727533706704122 
0.1682066007293288 
-0.04403959630637722 
-0.1827780503410568 
0.6900520851672662 
0.1283083339939066 
-0.4392625404641444 
0.1558381323047534 
0.6499328411704351 
0.3104975513491394 
0.4425035480017496 
0.3705275246053396 
0.06360773432927351 
0.3496887179658017 
-0.1793529148043505 
0.08117717920302545 
-0.2266037780310323 
-0.2576741791583104 
0.1087525484693279 
0.4707492713762339 
0.3997405445716326 
0.9015414981169472 
-0.4217757700702957 
0.3729474610765353 
0.4911045188013086 
-0.4273864137734277 
0.2730212588677451 
-0.2080680203218935 
-0.1190343224912546 
-0.4569905247190165 
0.2230357319014613 
-0.352886152455722 
0.4226041113926409 
-0.1677495701086387 
-0.3094790746062059 
0.5846994141039416 
0.5421933175523455 
0.2061766804580063 
0.2176329129206862 
0.6826556247491135 
0.355075789169634 
-0.1742464080750946 
0.005008338457264561 
-0.1744414930395152 
0.01651949347154981 
0.196542459282197 
-0.01920666119160722 
0.2645724743478661 
0.09654796944609036 
-0.02767267542893742 
0.1403515632536841 
0.136322374346838 
-0.364693090104066 
-0.5822180739396782 
-0.01332192083029379 
-0.1519123521331033 
0.1052588252998184 
-0.3373022214927484 
0.1925520764779056 
-0.1839777301553431 
-0.8798128307521331 
0.2142451265873924 
0.452228586825817 
-0.536138121950968 
-0.5201750434552503 
0.5883065170074604 
-0.1099891668368862 
0.01777076246729625 
0.3555136505816747 
0.4513620586110273 
-0.2044259903212047 
-0.3063639966923882 
0.4393689006213226 
-0.1894171397447579 
0.09709462865375548 
0.5382571322838178 
0.6986555181184607 
-0.2830347297587985 
-0.2385802348870644 
-0.06179355540326259 
-0.278699261801959 
0.3739059755833398 
-0.1081215898641287 
0.4984847019586028 
-0.1131223606160716 
-0.06744779707252629 
-0.3079055314673536 
0.4420943714044774 
0.1976613391833593 
0.2976937089341118 
-0.2061401484369688 
-0.07788069592308541 
0.03389449738157488 
-0.1484949994387498 
-0.2034302856247656 
-0.3697644511584638 
-0.495756666489412 
-0.5180086212263267 
-0.6678101726097645 
0.2612142207606598 
-0.3368155165461477 
0.2785160742138528 
0.3177434187759514 
-0.03045474582745029 
1.211953730972658 
0.2600404247721849 
-0.2412518221938193 
0.09359895244417593 
0.3756257644841067 
-0.1409385978199152 
-0.2679582165973207 
0.4413131069415586 
-0.008682828686777527 
0.1945065138073537 
-0.366840817167659 
0.402047116853805 
-0.08070298173174087 
0.4639540216712722 
0.4556735978131627 
0.1679756877589359 
0.2931371044042923 
0.1456636456932421 
-0.1640161424785615 
-0.035709053113833 
-0.1141002729142318 
0.1478529656803284 
0.9322113773057819 
-0.1187932363024029 
0.1904102624601514 
0.7378793135507643 
0.1534732823362413 
0.3090800492098287 
0.3093673252422419 
0.1983532724446331 
-0.2159818773695206 
0.3934564095864221 
-0.2064615464599614 
0.3558222789690119 
0.3360390374140203 
-0.1277350476716409 
-0.08276307195143241 
-0.1441163972701335 
0.347611886935444 
-0.3764052162673797 
-0.3672866269612602 
0.06161853385470162 
0.2709779765063488 
0.6714777259130962 
-0.1705613695128326 
0.4062764941203447 
0.2721516885941321 
-0.1169101484989329 
-0.320830063744181 
-0.1775171141252556 
-0.1258702691861731 
0.6037406091138986 
-0.125587362964113 
-0.09970816641130073 
-0.3637838572677644 
-0.02518090188246264 
0.08081902452324921 
-0.1613027205021181 
0.1406152053133498 
0.2628229294640214 
0.06626645212636664 
0.1486703032915341 
-0.04468206238941369 
-0.2402330438660013 
0.6226574440589785 
-0.1217725815520864 
0.5962227747167133 
-0.346201962014582 
0.05999998791471098 
-0.4355060959763893 
-0.2785517843301247 
0.6948259827187426 
-0.3331725513263247 
-0.05099105737413692 
1.016243314009254 
0.3355180877440827 
-0.4398711074992823 
-0.376766351802396 
-0.476308420741193 
-0.3598327041945261 
0.8602252227659881 
0.2565585859154735 
0.1724963915906858 
-0.1831487990443484 
0.2554722297743597 
-0.1986419985586419 
0.1602928787973947 
-0.2921758720626872 
-0.05720806271956617 
0.2698886057065095 
-0.4613315014197814 
-0.3917214991220092 
-0.07285971557645488 
-0.4063281832911849 
0.2326748560391692 
0.4708300306282791 
-0.1025608180260489 
0.02006451670346017 
-0.3445488165677676 
-0.01125287830409583 
0.3338380920853411 
-0.05332646760704687 
-0.09122397848223465 
0.3496015408203316 
0.1820222794863 
-0.2069581245792613 
-0.180322804975901 
0.03212502257804088 
0.108013040143017 
0.1051658552480629 
-0.49622209113468 
-0.1941710733884753 
0.02589996621388359 
-0.2016486674880682 
0.1554095757631477 
-0.08144219359560481 
0.05976687031998434 
-0.1528504229779671 
-0.6544233945865741 
-0.09738754848636795 
-0.8156866848179778 
0.2607955706181333 
-0.3141541782591135 
0.5054298915002674 
0.9503458218042615 
0.2634303325429775 
-0.4530272569519159 
0.01284756080421245 
0.4077178004431444 
0.7475499653540026 
0.314097341764266 
0.519746862725358 
-0.2850706449393162 
0.2479344344862326 
0.06648655351076209 
-0.3672217597854589 
0.08370387075120458 
-0.4270881699640584 
-0.2616754832005568 
0.1634966952829542 
0.7846949052300325 
0.1062833628315354 
-0.1304890689995976 
0.05019554694514594 
0.4401756957864931 
0.3076784682560265 
0.5784249649604725 
0.3456295975445294 
-0.1920525253157375 
0.4277866040908651 
-0.2474318945349014 
-0.1811105245502603 
0.1315696433501937 
0.06206189093917697 
-0.1167869095259808 
-0.1112868397686777 
0.02760146355723397 
0.0677081506385678 
0.5634703884950482 
-0.3309298579612462 
-0.3079140677381723 
-0.5318037528168016 
0.3960477797654887 
-0.1561029387915307 
0.03157145871546204 
-0.3901108510165612 
-0.1021364506178106 
-0.1395093074814233 
-0.3182060877079373 
0.1394485427789574 
-0.01675902451401426 
0.003383576063921256 
0.1143243399084244 
0.1831316225735825 
0.2642931717540685 
0.002679286563750299 
0.7695509511138556 
0.375993807538141 
-0.5234720622362335 
0.5106501580753607 
0.5134261355407125 
0.3068288685428671 
-0.1148481867541473 
-0.5914604040626458 
0.2699623072910638 
-0.04675210026382065 
-0.1714947891692831 
-0.3855579941574589 
0.3288169462167024 
0.3485027983733634 
0.003562845461389449 
0.4898636466495905 
0.2327452600549175 
-0.4022421560431327 
0.4550919849669549 
0.07053117145736493 
0.05092972457904971 
0.01658389621560216 
0.5071703215505391 
-0.3443497120044312 
-0.3712827239647035 
0.1610227335275779 
0.293673002926817 
0.3178976067970928 
0.2144483610198553 
0.06780525647162491 
0.4050104373032973 
-0.06759772137170603 
-0.08413955197267939 
-0.09317572829034927 
-0.02194637919515585 
-0.0549951877776966 
0.3587467706263204 
0.4565093845760632 
0.227741381859545 
-0.313169857617747 
0.09737338423430303 
0.4153677029996199 
0.2236422575147849 
-0.1058576109502969 
-0.4026756920312601 
-0.1621881678206741 
0.199316265534706 
-0.3398680997340866 
0.3363728099172439 
0.2596133514401028 
0.159889898831543 
-0.05960580323834677 
-0.2419430395478272 
0.2182285715478732 
-0.1817182534551972 
0.08465977386625981 
0.6754331609982729 
0.2927576604936559 
0.6331243250365245 
-0.3291197641100259 
0.584168701104163 
0.1586931870713362 
0.1780517617391741 
0.8975515328006161 
-0.4918990895731783 
0.4388170236933068 
-0.07938260134933316 
-0.3993111255681874 
-0.2613731273843649 
0.20575423522625 
0.2958560061382346 
-0.04908342366750587 
0.04118701780640686 
0.1859865416847801 
0.1332779026388758 
-0.06578980074602457 
-0.1655772071278799 
0.1016043885665771 
0.5461262040714007 
-0.1258115838616949 
0.1237343863589259 
0.0517008949998812 
0.1533061498291068 
-0.2807749051274568 
0.3326176560447074 
0.4728796092621018 
-0.3163052104890982 
-0.2278457575191755 
0.1205763847818696 
0.1483599851707716 
0.9152986362093479 
0.4771563871756733 
-0.01264200536094892 
-0.627440144914964 
0.4527289240021871 
0.1079671152161662 
0.1078092261369981 
-0.3499234814078978 
-0.2612903248479322 
0.1254722091408241 
-0.7495580606445671 
-0.0699668845804742 
0.2976087996984834 
1.289452161307891 
0.3582118618349153 
-0.2538467049800675 
-0.4079992844540495 
0.00231891040106641 
-0.1494017031558624 
-0.05807392390530502 
-0.09858429834527221 
0.02822079436612199 
-0.1972186532142836 
-0.2976762016007067 
-0.2097219703514528 
0.5310341729244848 
-0.3224074641614102 
-0.2619555943417293 
-0.05359756062026866 
0.1980049506623035 
-0.1221874517994474 
0.1102719010139714 
-0.3456570723496249 
0.1241771803780808 
0.01173837467084463 
-0.2630790542943674 
-0.3361855494134787 
-0.4586226124775321 
0.327900569883645 
-0.4611620850984685 
0.2961402793360761 
-0.191431740639235 
0.4155375122911932 
-0.02676245568242974 
0.1232248348366606 
-0.09760409190795237 
0.2275218126479299 
0.2160099285362304 
0.2057126568319353 
-0.05047315675669284 
-0.1040023592782131 
0.1510689902294005 
0.201975972340032 
0.02000575198405292 
-0.14119506029819 
0.2253565834189012 
-0.0006577382303609436 
-0.09869533299880817 
-0.05020875742318967 
-0.2846990588285577 
-0.01593500352692417 
0.6246436986357915 
0.2774284508073934 
0.4708268604814727 
-0.06350427256365147 
-0.2927969394558396 
0.9142443031599211 
-0.2346565199487536 
0.6292810521217775 
-0.01915794539938628 
0.2495248121007512 
0.2319785978493675 
0.1101288875862129 
-0.641308457544393 
0.3744289632982001 
-0.7545458280379103 
-0.09827806256891987 
-0.3487009031855212 
-0.4807287310297954 
-0.500098178368506 
-0.03011412673389886 
-0.2415145615193799 
0.3216833036339917 
0.213292267684415 
0.2247357563873174 
0.1289566286876903 
0.3117904702844232 
-0.6174173204357091 
-0.01504723813341498 
-0.0119501199552525 
0.5045580294561547 
-0.128195186664087 
0.01541550263885949 
0.598221304388541 
0.2652515667101185 
-0.1491841524534799 
-0.3221066818402877 
0.2910228599728241 
-0.4429755574285325 
0.03562860330096432 
0.3377282620541904 
-0.1793607503384019 
0.5845213035724386 
0.3444880298770938 
0.2576549971935796 
0.1880260249392868 
-0.3784610364820261 
-0.746083209236155 
0.01689089906576455 
-0.728173128566888 
-0.0494949855272315 
0.1045526460335884 
-0.2308186311514784 
-0.05494864937921175 
0.1568586144880086 
-0.2980389702208932 
0.4105568866423512 
0.3938026541070186 
0.3423542881089932 
0.3397490898674771 
-0.02258920669477933 
0.6935477496733622 
0.4700339725080686 
0.7090587261972847 
0.09310519410172169 
-0.2370305406330509 
0.1233879662827652 
0.2431318637191284 
-0.2548147458464004 
0.5958398935530324 
0.06085830385763806 
-0.2686625091607062 
0.004348794790436289 
0.1289564047474607 
0.03140239711151655 
-0.2628291724490061 
0.8186053432875148 
-0.3822423963987949 
0.001709913951307554 
0.1287266652776446 
-0.03255927606496325 
-0.2335908785012845 
-0.04101486575152347 
-0.4237215784805279 
-0.4236806578192121 
-0.3700913781274652 
-0.2404612301179079 
0.3466634386762626 
-0.2331554403951383 
0.2378179192150491 
0.26268840297101 
-0.06372346071110044 
0.1949635110881898 
-0.2042758192655824 
0.2530070401399066 
-0.1207718098070669 
-0.5404241012047413 
-0.2925553532228973 
-0.273513764192843 
-0.3149127902960841 
0.02669219221300013 
0.0374588906298319 
-0.1948208582923235 
-0.6112897374605724 
0.1902126811739018 
0.6859981775736403 
-0.2146930305144943 
-0.5000448166327892 
0.2488250476521518 
-0.4795699451934641 
0.1861106486526355 
-0.3520989677302335 
-0.2208260503690105 
0.1751896286238725 
-0.1429263707195875 
0.1654206458677806 
-0.08766784689461619 
0.25395067227907 
0.3285095856611808 
0.3856021071334627 
-0.05296293987045014 
-0.2284002445570729 
-0.1256539350202441 
0.4058328827967905 
-0.1737587234864847 
0.5519108650721207 
-0.7698469191005777 
0.3711433478251656 
0.0958569029115653 
-0.1360224439976744 
-0.4419234616834948 
0.3566302320166228 
0.02001874546228821 
-0.04858169238835515 
0.207376383291037 
0.7158515924492457 
-0.003719063565914345 
0.08927634592076771 
-0.1370470213818355 
0.5794798374645829 
-0.4978253099775213 
0.1633556409945379 
0.315330819670319 
-0.0865461034505367 
-0.02838624047037014 
0.1435538086324623 
0.1148980270090463 
0.03452161216286964 
0.004054386865919885 
0.5398470058895494 
0.1763621985667609 
0.07650175884934621 
0.02924065603265918 
0.2184203893540876 
-0.3309077506491657 
0.3880295492499456 
-0.05918016827989789 
0.07195416399269011 
0.02432280055020782 
-0.6536428728171703 
0.188110294363557 
0.01032557077280621 
0.1376174253325047 
-0.2264119981493526 
-0.6386771164896254 
-0.1411515744697263 
-0.1578967041845357 
0.5680714218019424 
1.10465096824663 
0.6792909592647236 
-0.1082820130299432 
0.05176742658812283 
-0.212213938936104 
0.2303494164606545 
-0.7660022957209293 
0.1354599359683494 
-0.1363509917358088 
-0.3388945152693577 
0.03973608499417212 
0.3173933816988407 
-0.1417924041243614 
-0.3571327958202954 
-0.0167253020065993 
0.3563953392579648 
0.6779981149348527 
-0.1513699334170062 
0.04330927623951278 
0.1786283822769048 
0.4269168421147869 
0.5880062731770351 
-0.1707172241830841 
0.5728871253896326 
0.08598509852701212 
-0.4276381887609121 
-0.2342748833112096 
0.2638106921203841 
-0.1796565875083365 
-0.3419764103164571 
0.01505390664774029 
0.1690332028272828 
-0.2169976482461661 
0.04765075507335942 
0.01859108004662274 
-0.9041806155968849 
-0.562290841250063 
-0.3735617432146915 
-0.5505985604161645 
-0.169241413590339 
-0.666740061480956 
0.3720943693669334 
0.3129267378340707 
-0.05922454612919462 
0.8642101256658441 
0.2125554542957967 
-0.4453284019702543 
-0.1844781426538714 
0.4703593101735439 
0.1783554635772233 
0.7881193465611691 
-0.2513187185698299 
0.09484102108734171 
-0.1598893179763944 
-0.8288140942092055 
-0.7096901257955894 
-0.3519764952364378 
0.158094050519745 
-0.04584692456484765 
-0.1494171464736087 
0.1822341352223485 
0.05508975219854426 
0.5288070334246562 
0.2914609784802245 
-0.0795855943561562 
0.5206906665651077 
0.5485223152587603 
-0.4221433599915927 
0.6276795688476282 
0.2711571954096393 
-0.1192576862255679 
-0.4961610869723206 
0.3128409931795056 
0.1926254349580735 
-0.3438963598765978 
0.4621111251802884 
0.1730191959301899 
0.3245977537664692 
0.738564335984804 
-0.08193389569332107 
-0.0758393735771892 
0.2817020470324293 
-0.1743470185711017 
0.5269897186542535 
-0.1653220834897224 
-0.3413915069512528 
0.6702430340039198 
0.01424677210504484 
-0.1623222694737649 
-0.01753754978636818 
0.9190916522435149 
0.183842848470594 
-0.02300260194972583 
-0.3528185597570352 
-0.2048735103998231 
-0.002810399306080041 
0.6863884465495761 
-0.1530914252795262 
-0.005723652042159827 
-0.5043907483031281 
0.0145752500636097 
0.02666306537484919 
0.4490249051410665 
0.05904441738385179 
0.5287005752748737 
-0.4597024252074792 
-0.3935930202353265 
0.1877078367949226 
0.2535995251017191 
-0.07354865078841177 
1.118413447309422 
0.5759685042359682 
0.3720542615170382 
-0.1267877086182861 
-0.3362577002330526 
-0.09586653529984709 
0.1120104928196138 
0.2469891088585973 
-0.01529070119244745 
0.2480441585615766 
0.2496108390298023 
0.3006062504343927 
0.1442709377967079 
-0.1033641418701614 
0.384008337836401 
-0.3298070014047683 
0.1706098053255557 
0.1844194567570855 
-0.01908580966380313 
-0.166938269604842 
0.6889078729397274 
0.9818494005796412 
-0.6721149992721133 
0.448026381995896 
0.1526061841590326 
-0.3119474777763553 
0.3819022777679532 
0.2593961389783258 
-0.07273996112793954 
0.2546305955464238 
-0.5588614035190262 
-0.003499256458808761 
0.02280758130705181 
0.3540657669596987 
0.1590669414630624 
-0.05949997458511277 
0.002994967211268545 
0.2028477751559498 
0.2226886050384304 
0.3047445584908396 
-0.4749681917954795 
0.2553922929656007 
0.07941076897761121 
0.1942939136791518 
0.2691766915459617 
0.1237900065301157 
-0.4067941484409678 
-0.3791666966079933 
-0.3537485990777371 
0.1995470954256721 
-0.7934955129075724 
-0.5181173533980569 
-0.1572748352865503 
0.03667361280086734 
-0.0563092829484541 
0.3499920385448122 
0.3795635609708249 
0.3872264469441075 
-0.2149603873951805 
0.8047600875103023 
-0.09248713441574324 
-0.1955402275501591 
0.08227932068692589 
0.5472567397712708 
0.1326411678617848 
-0.2097865687364056 
0.1059404353311552 
0.1446970404830319 
0.4810379000786179 
0.1767127715282411 
-0.07775311948778006 
-0.1542183431382134 
0.4522556033075118 
-0.07847741733544004 
-0.1899616770999015 
0.2704614147322992 
-0.06857890253559062 
0.470589607667751 
0.2107849970844466 
-0.3554919578128338 
0.5235001164478752 
0.3535656080914882 
-0.3348002792247141 
0.1553875126345708 
0.2748217430509338 
0.1839201881453826 
-0.3985588801596481 
0.06009508204576835 
-0.1006879060278084 
-1.001569671515903 
0.05639839857758071 
-0.6391649065209226 
0.1029162194882706 
0.2786784368849324 
0.2171928436902169 
-0.2401805288384546 
0.2268719809771317 
0.3612334964312126 
0.1584763331497017 
0.2979154967446935 
-0.5454137772043843 
-0.5899794136516163 
-0.2163559169473145 
0.2199803711524085 
0.04933638709396662 
0.7134687382209963 
0.005100750484638122 
0.2725908750585794 
-0.2799809255683786 
0.2076461593873531 
0.4749111281422393 
-0.24703113347082 
0.04647375438861846 
0.01567370503253161 
0.4972366809970176 
-0.1916287309169998 
0.2999988749126657 
-0.002725173833919375 
0.9334390412511275 
-0.5726728969256 
0.378602968379908 
-0.02982208530330004 
-0.2397463013455168 
0.2482821781536289 
0.1748693298278212 
1.054480263558334 
0.2946326891595376 
-0.5613595984106758 
-0.5285882797210992 
0.1316504546836764 
0.025828327247763 
-0.5607099216561804 
-0.2278844793250491 
-0.244705052286576 
-0.224123894425684 
0.1567894513698455 
0.2612345536676173 
-0.2600774192989186 
-0.5890068387077027 
0.2841913925476561 
0.04179715297316786 
0.4133002048725496 
0.1819459203705136 
0.7127659383471088 
0.401262772051728 
0.7336979366267655 
0.2193437302020751 
-0.4414605179417322 
0.4705623707497232 
-0.2815234394633678 
-0.8457080940434023 
-0.08219137676587607 
0.1361536937020827 
0.3204590668757777 
-0.03572037132694232 
0.3227153448945355 
-0.2639686123071691 
0.07267610215545509 
-0.179957051304197 
0.5690886005710304 
0.5203686254853772 
-0.1422348948389689 
0.1495704587990674 
-0.008532143961677646 
-0.1759231537326056 
0.1947809711348492 
-0.0501585342677551 
0.07187078437469133 
-0.07418148667761962 
-0.1987437373664128 
-0.7574781007024922 
0.4191458312113516 
0.5032104074553165 
0.06627610436000003 
0.1544323732468389 
0.2501545059608602 
-0.03422813465471779 
-0.2294772382040045 
0.1493905700309414 
-0.3072836166322953 
0.3828894198768934 
0.109104190291566 
0.2366580418741679 
0.1549042936503446 
0.3772695205732624 
-0.07367540474514561 
0.2204019848433181 
0.4196810450739526 
0.06020405561724046 
0.006269537491466611 
-0.6884519735133088 
-0.2282256785357644 
0.6885526775375667 
-0.02568645756092434 
0.2147138940652704 
0.2169366658103338 
0.5456981941112509 
-0.3418659512731478 
0.132064042095587 
0.5953808701732586 
0.1949842944166455 
0.2145061799270682 
0.2556234946082746 
-0.5499790521137057 
-0.4547086686282196 
0.3598146239907071 
-0.202617874293423 
-0.07229276327193043 
-0.5300229541681185 
0.1983243771817257 
-0.1281107813226297 
0.2537816173336507 
-0.0992140068405665 
-0.07365406765788161 
0.4415437348688714 
0.0919443069507567 
-0.1351908507679636 
-0.2410894061076145 
-0.02225170544853229 
0.1929999108101664 
0.07791367215062218 
0.3183837946539913 
0.2060936245643601 
0.2481190789454913 
-0.112033398653097 
-0.5863798790419082 
-0.05145789697029038 
-0.3387245232005135 
0.9932711482727883 
-0.2783255023977175 
0.842381208075328 
0.3553820589500464 
-1.512610426467805 
-0.4932421448625826 
0.2918480971369776 
-0.5749996754534824 
0.3407864519004928 
0.5087669822256958 
0.3742752626783178 
0.251583362234129 
0.118879272370284 
0.3395256322015401 
-0.3951553196226045 
0.04181011488399404 
-0.1274685605901951 
0.08511868282686762 
0.2123079934345891 
-0.6535930588678677 
-0.2882329750214713 
0.01137251376942477 
-0.09254421465866422 
0.05887550339584433 
0.2598271762283416 
-0.09189590467056639 
0.3389839603928054 
-0.2419622681688086 
-0.08158348140976446 
-0.1151772347873115 
-0.4731373519330426 
0.2174722673276799 
-0.01945912591923335 
-0.08467974974568088 
0.3925769732150338 
0.04675637344125895 
0.1021375844942994 
-0.2641973069313598 
-0.1097193504006083 
0.150283471739656 
0.04599968189318296 
0.4237862443556664 
0.247072982067026 
0.6486919609342068 
-0.04200363746951367 
0.2487335035305177 
0.274684522347715 
-0.2979722782068973 
-0.2610861686246448 
0.1914670945440234 
0.3140672777129619 
-0.5677296972648203 
-0.1004612666714269 
0.3763635560504058 
0.3176602255909885 
0.08445443942767103 
0.38704968427806 
-0.04783491013388604 
-0.1255997894306666 
0.5858252062125167 
0.3956486604277268 
-0.07796933011546582 
0.5228134254549668 
0.4127593811220005 
-0.8448673078744821 
-0.2298523181525481 
0.5490270447652543 
0.4942483691667833 
-0.241990376336511 
0.4668038317614644 
-0.002388056697523402 
0.08448603796881754 
-0.03762231407932709 
-0.4494210596634145 
0.1122149298568172 
0.1305121217410947 
-0.05970066970429171 
-0.2574375091644942 
0.2900196342456694 
0.1614048315892417 
0.6977183846424622 
0.07105728324045978 
0.2461990484548625 
0.5562498204188678 
-0.2434378351528863 
-0.05551004368732466 
0.4051225820736597 
-0.4299795989721146 
-0.6422148182674756 
0.4426801890924438 
0.5672234182447542 
-0.1907630195100361 
-0.490241229208752 
0.1321520840887504 
0.01319822209294889 
-0.3652184184123203 
-0.4524408552412684 
-0.08851046613836884 
0.4467606262089562 
-0.06263298638548301 
-0.06889792999415274 
-0.2930326842894175 
-0.261113066516598 
-0.2152038002127848 
0.3212794049170094 
0.6139562459926451 
0.4434281170018092 
0.1609645373251431 
0.7972224329268103 
0.2295673787538408 
0.1899425395673558 
-0.1067984520023716 
0.3059897622359352 
-0.173098286495798 
-0.2448494426130644 
0.07614260557558689 
-0.2279230937853114 
-0.3684276599641345 
0.5151982371959369 
0.4555527849789176 
0.3914098436999751 
-0.01887159936780784 
0.2265552313775399 
-0.3894322651470499 
-0.1425498449575944 
0.129282125194351 
-0.03152357554699625 
-0.124630244063007 
0.04828356131840569 
0.1270662704809776 
0.09754703378795458 
0.8778750477364772 
-0.04054746996857188 
0.1034071869611187 
0.6280816715989135 
-0.09737640445811471 
0.07723711890339691 
0.6686819434846811 
-0.2763352576423361 
-0.7776396957457218 
-0.2826366346931315 
0.3193551873950013 
-0.2110419173316519 
0.03811236811646047 
-0.2365681865955269 
0.00529950765510648 
0.1668117354478322 
0.4582653795050694 
0.02599141427693892 
-0.7657181072254368 
-0.03700867981646924 
0.7030409694259923 
0.1603199245401442 
0.4369825712182897 
0.01675729809746535 
-0.01172188038915116 
-0.1565324344566542 
-0.8618179714848201 
0.1679244178933173 
0.9567154992192065 
-0.3937282771695705 
0.01953028649084604 
-0.08716022257702957 
0.3947579698883373 
0.1225432962864373 
0.2892748414816562 
0.5573931282243509 
-0.3970951603662254 
-0.1932084029834059 
-0.02911749653299624 
0.4836944051747892 
0.006463189477202133 
-0.1470420965765961 
0.09730733214838513 
-0.1649088529518195 
-0.5658367314278856 
-0.2813928492641884 
-0.0702666396644038 
-0.3880654659026577 
0.3333508090557283 
0.1237291396096535 
0.0008756050943410157 
0.2199324698304722 
-0.178061486474665 
0.2731893423535521 
0.6717815877219779 
0.3027055560737916 
-0.3845860588856481 
-0.210264839610212 
-0.4989302535864022 
0.5970980458712931 
0.3799228975851657 
-0.2057659523099718 
0.2734296489115527 
-0.4135445858349497 
-0.1605128222743538 
0.01456533377785797 
0.09807184149661684 
0.3138442579440344 
-0.7172648517200844 
0.1813513168470438 
0.2054541703369832 
0.6395615925300634 
-0.4447293758180419 
0.17793372576193 
0.1456876508956862 
0.3497050287702574 
-0.2141631123924826 
0.3296510757074375 
0.05513286128522801 
-0.2325988559522764 
-0.004497333432845231 
-0.005265789246735285 
-0.6065263187584273 
0.2952864479440829 
-0.1829795587117083 
-0.07625054414124885 
0.1302207858664576 
-0.1983456206252872 
0.2785293394519403 
-0.2234911898799374 
0.6303063033108935 
0.02454112807611956 
-0.1682256260184047 
-0.06971071359654819 
0.2598018533644295 
-0.3378231193250283 
0.2039220024260949 
0.1038892615143177 
0.5212188368820809 
-0.3862573705413652 
0.1664579803715379 
-0.5630707963462169 
-0.00151211680673885 
-0.6313475663612207 
0.008705544130716836 
0.6362017470042156 
-0.01395827171539265 
-0.07301335461442929 
-0.07469909255514674 
0.4765763092572722 
0.1183651438269358 
0.1521264356691003 
0.3058615284777952 
-0.4978889652310496 
0.4717912394241112 
0.5029418521089535 
-0.3438007048421206 
-0.2427639478806118 
0.3712126743251665 
0.190508746990188 
-0.0785426314586847 
-1.017451823853541 
0.5960599079475986 
0.2274959564426955 
-0.4848924036949483 
-0.004387365438773244 
-0.3224852983528426 
0.5449478622091789 
-0.02261858967807341 
0.2062451273013859 
-0.7311704476539019 
0.317088128717693 
-0.2808313130725399 
0.0049984110288218 
-0.2668644077628878 
0.5160243165337269 
-0.01609207856381777 
-0.05737818764190947 
0.4812889240771095 
1.125777573646516 
-0.1330069058258928 
-0.8531168807906969 
-0.3448492633345667 
0.5080726776771968 
0.2647542371544217 
-0.2070337833983505 
0.2882774230017986 
-0.6263122027763004 
-0.09477663503657718 
0.4199643773887796 
0.4332603068589891 
0.5486658112030954 
-0.1607934248636522 
-0.2316617825931491 
0.153807688206669 
-0.5265716971791309 
-0.2192765016314974 
0.4295415324203369 
0.7798084657575547 
0.1034923978999329 
0.02425339032412487 
0.08812778331250556 
0.5681086695482543 
0.4550120009186474 
0.1243810090817885 
0.06078987800746545 
0.1654243785899214 
0.6551632206050092 
0.217885639985301 
0.4147469600702343 
-0.09605035064523071 
0.2885650520390252 
0.5931689820240348 
0.2307230682260819 
-0.3807958685499369 
-0.461321843131442 
-0.02582220036928555 
-0.836192811188267 
-0.3062977142410795 
-0.05411708511000909 
-0.3401653779006947 
0.4952632656777593 
-0.1934259797178798 
0.3953073020719373 
0.4517932016705952 
0.4254001611655898 
-0.1114791344797309 
-0.03606068550578299 
-0.2863417825733905 
0.3557148085317532 
0.6070905384015328 
-0.6421385542217425 
0.4043720675320781 
-0.2282536125152379 
0.06671638582568612 
0.3834419674782149 
-0.04242538193556263 
0.9136387936091249 
0.0837292160477596 
-0.5467596988719482 
0.1500223597939481 
-0.9578786308390908 
0.7459053397664384 
0.3778780712107454 
0.3391219300561081 
0.2538511498553081 
-0.02635884361818418 
0.2187824511733537 
-0.3863192205431475 
-0.392374374977393 
0.6783055903680226 
0.4312795154494053 
0.457770661801572 
0.02555848376719162 
0.4738509265492313 
0.1934948766204907 
0.08214073348355865 
-0.07477175748016349 
-0.4763370087086183 
0.04705951485144053 
0.2400721609493871 
0.5784384399261211 
-0.3089704663423976 
0.1859531463692656 
0.7711084627111892 
-0.3981729922325593 
-0.2997180093722347 
-0.1683205814510989 
0.3873736990016126 
-0.7220046211700483 
-0.1991566047850397 
0.6759452347576477 
-0.1590950376247285 
0.2021059012977489 
-0.2694811013414706 
0.08021386193996954 
-0.1722725886784959 
0.2394650795825025 
-0.4970666185370805 
0.7230009555352105 
0.07842632323404194 
0.5113258009037799 
-0.06377286647510637 
-0.1527697104208142 
0.1413536553258601 
0.3537047996520076 
-0.142423840239978 
0.6075161025884175 
0.1230697838077176 
0.1344415177676606 
-0.1744292232436446 
0.05674153158628578 
-0.2242358424407077 
-0.5163116000217981 
0.188333352539855 
-0.2474225265560416 
0.1540757798662489 
0.3697497422809856 
0.01953120892154403 
0.01842416170346051 
0.1582884716480375 
0.0873006086585798 
-0.01736707628215396 
-0.4978937953987191 
-0.6243535309446478 
-0.04890115163336408 
0.2085966784820887 
-0.02777226757255748 
0.254144688308983 
0.05018178403136182 
-0.5206867442233194 
-0.1650299045837456 
-0.1264686688284208 
-0.3808367571716833 
0.3415461654844887 
1.002746179187295 
0.06978133680338311 
-0.249577106248252 
-0.2146045617747309 
0.4994471943556277 
-0.1495399083582605 
-0.07009875154639642 
-0.2262768113927344 
0.04055347577817593 
0.5189291476989157 
0.03426490725184658 
-0.4785429945968559 
-0.2011717753529421 
-0.0865653401860261 
0.4557760377847789 
0.09522137432746228 
0.1552134896961592 
0.4810270428116496 
0.101162374289032 
-0.3156369146967283 
-0.2372676092069285 
0.01921654732327154 
0.2159890351851195 
-0.148928221174116 
-0.09269106118539272 
-0.1056880609384859 
-0.1208454260856834 
0.104134947513049 
0.6148435051819838 
0.7247242482397307 
0.08758232110946716 
-0.05249066948763727 
-0.2167203909774587 
-0.2310716116647701 
-0.1205085287132325 
0.2254437575380783 
0.2894001760221717 
-0.4785656636073443 
-0.5915500100615341 
0.03952138568421713 
-0.1349188497372645 
-0.09611137521707745 
0.5133418059185123 
0.4207523883660989 
0.1288396439210832 
0.0618631798742553 
-0.08970199992544206 
0.4225838298302092 
-0.09636649987183374 
0.1038260166885258 
-0.3930993981888514 
0.3579286389467555 
-0.3359632682645589 
0.1872828045522641 
0.804809471537991 
0.0231380183853329 
0.314078609668099 
0.02632304120898205 
0.1717054487659826 
-0.1278048657546852 
0.3279549949936079 
0.05778338036120083 
0.1114788998951931 
0.4422674439858177 
0.3595393901558619 
0.04653804073741375 
-0.418766813130069 
-0.6047721133585324 
0.123518417396013 
0.02291838032405532 
-0.2087742155107738 
0.03422793775191064 
-0.08898764156592731 
-0.1744940393533538 
0.2719266353360131 
0.1176429844488492 
0.4746513608415013 
-0.3807002905817341 
-0.4563499473275641 
-0.274530364435387 
0.5886105258878465 
0.5824960623347243 
-0.2677626780767429 
-0.2435613398668848 
-0.01532274731192688 
-0.1066074873620568 
0.0783033058996784 
-0.1431736773527473 
-0.008976228809287001 
0.5084337252501294 
0.3053085612104991 
-0.5145890845248378 
-0.05472904032360108 
0.45447549004538 
0.06649645022277328 
0.2717140493536518 
0.07772190625827351 
-0.2910087976311603 
0.08099179200032916 
-0.5067232110563711 
0.2863786535296217 
-0.3066046155393898 
-0.03560216306661373 
-0.06432482365794909 
-0.2752946416038054 
0.04846603061384637 
0.1479150869608148 
-0.3233567271355571 
0.2386883318869446 
-0.05530885917481476 
0.4057346472352748 
0.3858754969809438 
0.1481027860651774 
-0.2361371060917536 
0.2667290016402408 
-0.1100080565001969 
-0.2556222870914484 
-0.1119095834302855 
-0.2585430631554405 
0.9002879755710657 
-0.7156679177023758 
0.19973779039378 
-0.005265433370847613 
-0.1139028332383665 
-0.3269138124592795 
0.5210899363167012 
0.2654632504227471 
0.05582221284508868 
-0.1472954562558035 
0.3299422124095268 
0.5200791792894853 
-0.3077962212421766 
0.1606898647668171 
0.08390262725288793 
0.1537869833733628 
-0.6282185483711226 
0.06812387658721521 
0.03025181554641383 
0.3479222170008381 
0.5202894655730931 
-0.07178363821524081 
-0.07484295538055417 
0.517350396303189 
0.3716916626012307 
-0.4796402407369533 
-0.1277297015140274 
0.1263142298087723 
-0.5194418644026928 
0.2247366134704702 
-0.02206266897976263 
0.3554205691094479 
-0.09899547597451955 
0.0006525859346623863 
-0.01748411736675345 
-0.02666093440302203 
-0.1458324404570292 
0.0003958716835659182 
0.5653994086283471 
-0.03194007051384484 
-0.9870948777250295 
-0.2155010426643056 
-0.05678288768331165 
0.0267279813991399 
-0.02355451760257234 
0.6468046782172847 
0.1526864572411877 
0.0685303302021176 
0.03489272439811839 
-0.05902321645130319 
-0.4879443061610004 
0.1646069068198734 
-0.1958918184243921 
-0.08953964036069194 
0.284272341145897 
-0.2350011728777223 
0.3199199290908473 
0.3345743403355423 
-0.5411312001636615 
0.5295116072564163 
0.1759990875617451 
0.07171490701324028 
-0.1515274666287539 
0.3290272615588438 
-0.7120526734777932 
0.5428940887151533 
-0.2418318252282934 
-0.1104371809502378 
0.4682480871883602 
-0.1423244110388449 
-0.2037118088961996 
-0.6304178007228616 
0.7149917766699836 
-0.5199095347187694 
0.02345529758775477 
-0.1855640436476183 
-0.04005662477723349 
0.07689224829310461 
0.1957336466283178 
0.1998351119560558 
-0.02594308918522343 
0.2970321380993138 
-0.7022165221958601 
0.08611261002006657 
0.2885746115852216 
0.4074758757769043 
0.3982882092713823 
0.1053182494394472 
0.4066322689011985 
0.2257180295249728 
0.1034771666584516 
0.4979726037441508 
0.02660827740462672 
0.04913971707104423 
-0.02651350462591068 
-0.1631179746838277 
0.1266777668847145 
-0.5562551115510074 
-0.1943504084067087 
0.5988307807099311 
0.7749349660251429 
0.2834386350761589 
-0.03676610079512799 
-0.06271250095607728 
-0.1546793767266145 
0.2761986858913494 
-0.07007461286715985 
-0.4343941726742073 
0.3048527800265472 
-0.01311297197914557 
-0.004590580327918259 
-0.2378059972855435 
0.1221441915253094 
0.354938021886239 
-0.08207309693201525 
0.08469348655729259 
0.2831751145201115 
-0.3228501213828999 
1.172038914834064 
-0.4972359807923836 
-0.3025497931000239 
-0.4410286112042223 
0.2967357484935031 
-0.07855187879611408 
-0.003882130484623991 
-0.2295075375817016 
0.1013971838284787 
0.3656616690099979 
-0.4671044089516125 
0.6484697924935423 
-0.6655797903355292 
-0.3944630281242133 
-0.3201595425267395 
0.583159065414808 
0.1582595807903195 
0.3614724422258973 
-0.1181029157224338 
0.04616008205031527 
-0.6749421836243259 
0.2609478080231068 
0.3319927237827736 
0.0659246704124421 
0.3321840857196766 
0.5853757605201235 
-0.1107695712642171 
0.07259291982839854 
-0.1762967381352083 
0.5073177823358865 
-0.5980035899328346 
0.02710131400733892 
0.01218961098245142 
0.06822110770593058 
0.2217118816338616 
-0.1618861498053962 
0.7916629182545631 
-0.984755045634885 
-0.001993962321861456 
0.2437464586908619 
0.9708185212173859 
0.4264339653793176 
-0.1574264531585633 
0.1465993311679978 
-0.02272868899662157 
0.07698824015267536 
-0.4836857179831356 
-0.1313043982685927 
-0.3716856938315357 
0.4053063178285159 
0.1838519443263078 
-0.2458018341099637 
0.2427591232774443 
0.4067801824258164 
-0.2169522074499626 
0.01282454616889312 
-0.03038978147651593 
0.0734579982215344 
-0.003896520418726734 
0.1292232568109941 
-0.1854280090841822 
0.7159066469386157 
0.4493106912080204 
-0.04052471061593646 
0.0325717929360566 
0.4601518770849176 
0.2326954965723567 
0.484257856105935 
0.4411502629981068 
0.4075616399349697 
-0.3054617486997028 
-0.0437156348771528 
-0.05260389976569223 
0.3453810253423277 
0.399276934969476 
0.02101935488674668 
-0.09419213090139514 
0.2509335679312547 
0.2797906914126111 
-0.1156175380120024 
0.2354332582278809 
-0.08110875228559933 
0.2225834445753306 
-0.4154040609564848 
0.1014165855174897 
-0.1830618420881131 
0.1367656543600178 
-0.1278981230119564 
0.2248282972875436 
-0.0268998068988926 
-0.2509052720828621 
0.2392796516283157 
-0.04153587681245324 
-0.2402902736945681 
-0.7693255560830911 
0.3408357321609436 
-0.4034792133828194 
0.7641949168114943 
0.3039962290085789 
0.6298100977793913 
0.08756593113403124 
0.4500503397939444 
-0.9110342504582178 
0.002881390461545258 
-0.285728662444153 
-0.1218056780820478 
-0.4218902264251962 
0.8818924821043342 
-0.2805351919244934 
0.4418828619356208 
0.1144622119369581 
-0.01316201205474434 
0.2742058015947352 
0.6334670460024008 
0.0995131879975297 
0.4940504009377308 
0.5424905430084396 
-0.5620077561820939 
0.3702514134649593 
0.5865640152887044 
-0.2727683754083776 
-0.5829527629491071 
0.7752087534610711 
0.220508736490802 
0.3562692506310058 
0.4521371224717017 
0.6463002222313332 
-0.3575222462007818 
-0.5120667357194706 
-0.1514856059555896 
-0.1240172140236735 
-0.4069790685406927 
0.1868149515274213 
0.6859816634219537 
0.06247792003216675 
-0.1291930789681394 
0.2292075224794255 
0.4668425283524081 
-0.02876393099423186 
0.1408161240978157 
0.470402678154355 
-0.1538612552614778 
-0.01100339160631274 
-0.6125889914817269 
0.5361932110442735 
-0.04679184281748366 
-0.001493881248201115 
-0.0484703266427268 
-0.2347786223472547 
0.0168900601702648 
0.5724212308418509 
0.1234479423370495 
-0.1174849213701429 
-0.1496281349248886 
0.09828534065410102 
-0.1505280512115919 
-0.195582891397889 
0.1387419060173342 
-0.1216753932583743 
-0.06622871699331734 
-0.7641196071344104 
-0.2347332079440926 
0.09125672457636499 
0.7414454553552478 
0.307690756100896 
0.3773482694027208 
-0.243353562913374 
0.6280548618047888 
-0.5046242141434121 
-0.2501362809399966 
0.3047338589024742 
0.251277089988213 
-0.1277097512335216 
0.3742261097563094 
-0.1450548870655344 
0.4393866005657103 
-0.05896415232942787 
-0.3322076663991658 
-0.2978830551714292 
-0.2683254086547713 
0.4835441618928025 
0.1656389746937862 
0.3343352216732187 
-0.1271844694705502 
0.2478847685638916 
-0.3157210560622445 
-0.3944436046145473 
0.2780325109192958 
0.4089968989011034 
0.2800029917048027 
0.0642750769767248 
0.4699023839565657 
-0.3928422708589998 
-0.05990134752814708 
-0.5658574509139364 
0.02184842329643614 
-0.3221873585720072 
0.5837970744699957 
0.01493036402018912 
-0.4127960245570431 
-0.071468007157632 
-0.2883739986091295 
-0.1817872243688691 
0.6489826120595779 
-0.005265874546186447 
0.2981726913847582 
0.04049278955174345 
0.1336948206933846 
0.3833568953903537 
-0.2555922941180432 
-0.09942587140446427 
0.5948484603904014 
0.1645346050436148 
0.5293163666137852 
0.9338835824317937 
-0.6419570567789726 
0.1336617755027718 
-0.3262889941216957 
-0.2617290346594614 
0.5914150964112107 
0.3563822319165582 
0.1121933830333142 
-0.1154005073333145 
-0.8725417932481733 
0.4632177062918474 
0.3035896794215268 
-0.2529073916512806 
0.3673389294105512 
-0.04892485566689715 
0.1816424375353338 
0.005877127101825115 
-0.3349663595239273 
0.4663457182213472 
0.3427463160470274 
0.8450621663513639 
0.2337427177652121 
0.3639369809765881 
-0.1773462493236093 
-0.2033612435879547 
0.4933297815774871 
-0.220910754018454 
0.4939414690455264 
0.1497909112792938 
-0.04593235373026476 
-0.7849616679001767 
-0.3095840432107987 
0.1865999133349611 
0.3813277041936256 
-0.309843926041114 
0.118661919788131 
0.2635167695297949 
-0.4614037833328443 
0.3481757000358709 
-0.2321071347927453 
-0.06990742160382357 
-0.9311199239083267 
0.8040320772836564 
-0.191814380192085 
0.8095679252825169 
0.07886802705344419 
-0.5007336751737901 
0.3079298273176226 
-0.5049288313315636 
0.2062100406958394 
0.07748945722068161 
0.3170174899248613 
-0.2237583496793612 
0.2857998649532502 
-0.1224400879987761 
0.2535496224576035 
-0.176522544637379 
0.7402267979786078 
-0.01234038041646297 
0.1959042353831059 
0.2716763993155077 
-0.1429020907485989 
-0.06189429197406339 
0.03512314133219141 
-0.2932132466279698 
-0.4427488862434301 
-0.5925553434374002 
-0.4288365727115319 
0.1689852468534789 
-0.4100997861047649 
-0.6198052084439424 
-0.06436511300603584 
-0.07337544211220474 
0.03481087562003514 
-0.1683095459847055 
0.07927213287979917 
-0.4463478901483786 
0.07211451569007932 
0.8514542667727674 
0.0283976066075797 
0.5374597297873974 
-0.3961860904964846 
0.5473251726003803 
0.4091804461115215 
-0.3355464402180203 
-0.2223876214257046 
0.2895228394554151 
-0.5812036659446647 
-0.1057747174965653 
0.2176588238255087 
0.08634038169619188 
0.1482856244291657 
0.1784313282048702 
-0.5547277499048008 
0.317027505596401 
-0.2960554807533791 
-0.01997080376643269 
-0.4276563832784819 
0.3192349676463745 
0.01060134314532002 
-0.04070230671620448 
0.3198789258051968 
0.5288093492637381 
0.02040072455399815 
-0.1351947571638708 
-0.395337483667584 
0.1185628533805813 
-0.3409312149372817 
0.3814847610200816 
-0.04948489061990143 
-0.04555927952852194 
-0.2237710498809581 
0.5921405285224589 
0.5088967302954219 
0.29326654741517 
0.05009641007346811 
0.3324284620252953 
-0.1793389308131476 
-0.7109025116877727 
-0.2870272705326296 
-0.167117432650157 
-0.02289682871275346 
0.1617713325904426 
0.2492306445101136 
0.1071639076070193 
0.1162240515097583 
-0.1613983408003742 
-0.1950448495368805 
-0.3700034631113759 
0.14476614723343 
1.230625929503451 
0.4616780083221014 
-0.1051259030502778 
0.2935063889195857 
0.05460558670650781 
-0.1256609951003676 
0.0892923329471445 
-0.1561587170403732 
0.09422011524972734 
0.1399305095237331 
0.2004527105183962 
-0.1449056820140891 
0.04573212008112937 
0.2436823637140259 
-0.1357922164764818 
0.342947166608426 
-0.8018669614948899 
0.1050573905418229 
0.1229532867420446 
0.266474501065718 
0.3046493012921357 
0.04650218000090044 
-0.1899907174306457 
0.2946495142700764 
0.3573892595319217 
-0.173641071515203 
0.1863747391292356 
-0.7147574522152467 
0.3878001775325794 
-0.01148874315771544 
-0.25384765490821 
0.1189233691109653 
0.7175801346917446 
0.2360593932359651 
-0.386954660007193 
0.2647803712715924 
-0.2225032494027758 
0.08159067883887508 
0.3153184673500604 
0.2699080845580821 
0.05496712480881493 
0.2177220422722799 
-0.3314095599204831 
-0.4116895500475884 
0.08269799704037495 
0.2042995241713935 
0.01046272008818874 
-0.03192088174843841 
-0.1209055257098568 
0.1072744028652737 
-0.4071061076480673 
-0.07258491907768368 
0.02306658698232372 
0.3080183205423611 
-0.3078604591170374 
0.2050500698488814 
-0.3086736382576324 
0.04903916426962204 
0.2613214218720276 
-0.7028258142027615 
-0.02813022556371402 
0.9188265514406757 
0.5714541721219307 
0.2396513884507463 
-0.3115645209973296 
0.3785439233890143 
0.1236436626923626 
0.1693588927655826 
0.1512278608379636 
0.2965386639125045 
0.04459826936450592 
0.2053234022783738 
0.09422284467298862 
-0.3496244466082774 
-0.5279580281224829 
0.2312683998673857 
-0.2910932480200563 
-0.08152465146950683 
-0.1961915238974001 
-0.2910204732349734 
0.4330490876310373 
0.4100076740446104 
0.3369494642875269 
0.1861778742440967 
-0.1312588280415715 
0.07801514234824564 
-0.1860528687039727 
-0.3225653096249493 
0.01283338744738044 
-0.1672271399200175 
0.4904928657934317 
-0.09099061860812174 
-0.2259028787065645 
-0.1146507615525628 
-0.1888293280280973 
0.3759951639155895 
0.2021924728295474 
-0.04761690873599862 
0.14089557947979 
0.3035356375189115 
1.055095059982372 
-0.1704365985965471 
-0.1905452991109483 
0.4189412083875941 
-0.5272144313524662 
-0.2306341318592248 
0.3429049876575754 
0.08040094574040949 
0.2971844370659958 
0.1290984532150224 
0.03987781194563203 
-0.2081525513465409 
0.1678719492209058 
0.6694365116951758 
0.3573639578379262 
-0.366538487377317 
0.9802095689257315 
0.1556115041346538 
0.4270184401515289 
-0.1133231141473712 
-0.7242051670404352 
0.2571995730470791 
-0.03650700577413734 
0.70963499332649 
0.4602156525504174 
0.5325777196518792 
-0.01816527662382168 
-0.4217257519682339 
-0.131138986152196 
0.05258925470193884 
-0.05516016437482824 
0.5694199158738631 
0.1512779213397182 
-0.3560541584328598 
0.1710735005472353 
-0.05771889235385527 
-0.1900064964032898 
-0.1957635532039948 
0.1366699935760625 
0.176430368516646 
0.4891181500887098 
0.3878688648760381 
-0.5125678530138678 
-0.05647748459446404 
-0.06948133822934091 
-0.185879972710239 
-0.8614595538228078 
0.5729181948350983 
0.04371695405173359 
0.1149719124007032 
-0.04941209797157647 
-0.1132767319605482 
-0.4993024458582062 
0.1027198036720027 
-0.173125617254302 
0.09910795559446564 
0.5339788451595707 
-0.1409335038432276 
-0.3001844440374345 
-0.03394560451900056 
-0.1407416753724616 
0.1481791601645986 
-0.2036661417464566 
-0.02134530409865683 
0.6401764514539787 
-0.6926909189984622 
0.01841380916147592 
-0.03497983823092752 
0.248333514545632 
-0.5090417413326107 
-0.07964222176801752 
-0.03835987990917918 
0.1014737557052485 
0.01367771552953043 
-0.1044917953982684 
0.9317212765680889 
-0.202693347437733 
-0.5828334336836638 
0.05466451558137544 
-0.7883629174265956 
0.7004097246050003 
0.1621212037381908 
-0.150958283923412 
0.2818325303890641 
-0.3308095359105412 
0.2638266158393306 
-0.234752186219859 
0.7765496544502757 
0.3826686532655948 
0.1145441231760334 
-0.9515832261667514 
-0.2041373768073318 
0.4953990187382508 
0.4302460177641274 
-0.4673262313652636 
-0.084180387936169 
-0.3952093128085288 
0.3126845872479119 
0.2586010410811727 
0.2220375584374327 
-0.4004944154228843 
0.01006764470841112 
-0.5955864468269706 
-0.2549618801982316 
-0.1729839944686614 
0.5005650493918814 
-0.2295279622630453 
0.3936297061121707 
0.7200251332096395 
0.1846681646071772 
0.07887892475045694 
-0.06216629754678597 
-0.1553185392301066 
-0.491586734030954 
0.4819167411300833 
0.5730490863937693 
-0.515435721080438 
-0.05256349134342345 
0.1824188029897719 
-0.2186840615093274 
-0.05925612069545708 
-0.3290873295099451 
-0.1064282761491826 
-0.2217868585748756 
0.7609925685329195 
-0.1339205495982795 
0.2303486105996764 
0.6498402483736569 
0.2742956889534488 
-0.2843471899757651 
-0.1424886459778876 
0.1053104980713168 
-0.2091430359117332 
-0.2224618258980188 
0.3699767272973549 
0.09055340503198496 
-0.1686417971248497 
0.1130565487511487 
-0.1365738144308807 
0.2559455825032462 
0.5846374934492651 
0.5414233844793156 
0.6749380658272813 
0.03062017355187991 
0.04940313708603239 
0.1264125628195188 
0.1550341086209908 
-0.203935793203546 
0.04539156235011989 
0.8131841774978756 
0.3582692524321309 
0.4749687519190149 
0.7688649613126872 
-0.660135803329154 
-0.7887333097574998 
0.05833354205653654 
0.4310536432485588 
-0.05244098748522998 
0.4824616352532641 
-0.221333072479074 
0.1629042537564371 
0.3059183624991311 
0.2566677029823756 
-0.133043862866102 
-0.226670836138019 
-0.929925470999313 
-0.1007294721780263 
0.6167011853757041 
1.020772823513953 
0.4948275182548213 
0.006874422399694085 
-0.6811791452117347 
0.5927887551792568 
-0.2340999157976317 
0.03543607456102151 
-0.2767580163030621 
-0.4800557399825891 
0.3959500687870824 
-0.03696731977813601 
0.4635235751450899 
-0.01102789065401093 
-0.7110726870905533 
0.02276221909567387 
0.1306535254440396 
0.337732388612163 
-0.1728290029893648 
-0.5121481844997863 
-0.05290371494042875 
-0.250383683784121 
-0.3119298503804245 
-0.1857503253416227 
0.1553119214411161 
-0.1793691013586843 
-0.08508998449481617 
0.001578627889936485 
-0.08936278441767967 
0.1367060909186421 
0.2533056487058756 
-0.1272111279308459 
0.4539882973669607 
-0.2179560193248433 
0.0948380288139212 
0.1575187950851673 
-0.1884823915403759 
0.09361384203815622 
0.2787553840069233 
0.1868098707987485 
-0.1374068807642344 
0.2516757198498184 
0.6369532383764489 
0.1615356693141868 
0.4017604526539199 
0.1450377688820963 
-0.1835670366933501 
-0.2340795066265881 
0.2456764525546583 
-0.212387793886031 
0.2987270501930502 
-0.4181898566416538 
0.343644464953491 
0.1233022720875682 
0.7637970730651453 
-0.4060197033506662 
-0.02230020535964247 
-0.4093275299344249 
-0.2378108716683749 
0.2573020101898386 
-0.02582435753209673 
0.420825334226382 
0.05722180835429486 
0.2533147357035058 
0.3914623645140065 
-0.2796153337924207 
-0.1089667231013173 
0.09411884562609601 
-0.2333004960646136 
-0.2585512242418983 
-0.209743839007101 
-0.6946578609076817 
0.3411178546133564 
-0.1575544073943245 
-0.1181826976063858 
0.09868537358707336 
-0.05783415292638139 
-0.009985277810729457 
-0.09636062198632912 
-0.316311280809443 
-0.4480290956252684 
0.05027782207457632 
0.1344003463858466 
-0.1323619538005789 
-0.1227542281201629 
0.5505774367807156 
-1.072410127580531 
0.7773604841040596 
0.6002420728879539 
0.5749839712865934 
0.3151097527413619 
0.09078009153559063 
-0.5332644919644156 
0.5324205308373227 
0.3334370005926944 
-0.435369657053104 
-0.4812456900474996 
0.3051789631638335 
-0.2560491900183635 
0.0930960575448318 
0.7825143540910087 
0.1947800654626442 
-0.01468280236359648 
0.58175999117699 
-0.7829471921362952 
0.4847993002025209 
0.1082973740212616 
1.032478640650356 
0.08582268195769577 
0.2053801947979204 
0.5628693873444204 
0.8065663650516686 
-0.5376459100569544 
-0.3245807951088275 
0.6834832235635391 
-0.007935502824386646 
-0.1401998579465445 
0.7604081563090881 
0.144756675358755 
-0.2993546651248891 
0.4614809147506544 
0.6860173401948506 
0.3057669359447456 
-0.3344152428628657 
0.01935411681400354 
0.1375233609395514 
0.1719145948546743 
0.003483879303716672 
0.1248613979660479 
-0.3365183722669147 
0.1776710285436852 
0.06142429435599349 
0.4104327672709638 
-0.3982098678709352 
-0.3528927833281332 
-0.4209997600129102 
0.08428213234782085 
0.07760640983987099 
-0.07742456435645881 
-0.2767690263271788 
-0.2904653005693149 
-0.1905111015098922 
-0.5820893153319667 
1.447971247983434 
0.07473337267840298 
-0.4707002751997245 
0.1239142199039862 
0.7347322089406855 
-0.2415752678139603 
0.7771307791873532 
-0.4760410214642645 
0.1835277450395139 
0.211065312776156 
0.175963687393634 
0.3398261239653363 
-0.601523983685702 
1.104212061866344 
0.3603653635523307 
-0.07209357200686251 
0.5039028824077761 
-0.1433133241125149 
-0.2731753372171703 
-0.0302290014891219 
-0.07148708069706701 
-0.1651808434481882 
0.01972003295790994 
0.3938694274336293 
-0.2676351159864176 
0.1103176468868796 
-0.4507704953084737 
0.3848125275862297 
0.4205548386482242 
-0.1685746931055407 
0.5410076771358692 
-0.131838273422012 
0.692074443213972 
-0.1101449820995938 
-0.01646529817807604 
-0.6751101478593237 
-0.7100369335882357 
-0.9040229477836988 
0.5714092728112481 
0.1835817418912278 
-0.1299448122043681 
0.05802106731462179 
0.3432984181834926 
0.2988518078609786 
-0.3191115093579938 
0.580698175801966 
0.2285894388825686 
0.3957717066797308 
0.581518945312962 
0.3437293405477744 
0.3891758118016796 
0.07077678530566539 
0.8130412495041945 
0.4588739333822709 
-0.5419187348125114 
-0.1306989866563421 
-0.2595262641533136 
0.3062548830501521 
0.1945649824898197 
0.06154635013485387 
0.7781791154971416 
0.4785687537718728 
0.08141854148302972 
0.08425188187100657 
0.2410429794981956 
-0.4101871891441448 
0.127467391132343 
-0.4739247223415205 
0.2649146584050416 
-0.3288290941934991 
0.3062892793950973 
0.0780812444954561 
0.09353753992171926 
-0.1505371921236276 
-0.7109795037502615 
0.2823158830449665 
-0.7681112552866802 
0.1425296774189447 
0.2668138590134796 
-0.1598252303360436 
-0.03469335093330415 
0.1831608083722049 
-0.4866691228842639 
-0.454475939830012 
0.1865031629820468 
0.02357700199080162 
0.678975548629837 
-0.9419837210279433 
-0.3447439131863167 
-0.2270625471475486 
0.02774473857376804 
-0.2115884317346585 
0.007047958151458672 
0.8280250334818393 
0.270667469377262 
0.1134731620169599 
0.155291172555714 
-0.482947188259995 
0.03769043149863011 
0.734966055115812 
-0.2315325137106632 
-0.4850476460182198 
-0.3445422510353563 
0.376335493096299 
0.2513957416753074 
-0.02099351470945307 
0.2804134732842288 
0.7065497077984255 
-0.2702723961860174 
0.01455288499731877 
0.3513534487030376 
0.02059158768683067 
0.2510524960826768 
0.2252703376490982 
-0.3599742009290985 
0.10857291972701 
0.3209516297281459 
0.05985254188643862 
-0.04566361924808232 
0.5140098337930414 
0.1702418846971551 
0.01230848240152138 
0.6662719849244561 
-0.311487688906485 
0.4042950784394765 
0.4297335263059137 
0.04586571367786849 
0.1264605701465965 
0.6764159955315224 
-0.06882633073243612 
-0.003603657416564293 
0.3786080503602326 
-0.004472193411800468 
-0.6221378031235272 
0.5813101632037297 
-0.1158489128367431 
-0.1548352710050048 
0.2788378861220917 
0.1993325413419823 
0.2010129497631995 
-0.4023982973449731 
0.07128918879478981 
0.003119907761042479 
-0.3786694144830344 
0.02834231249430878 
0.217905164106109 
0.7167613267700252 
0.0819360164189743 
0.9815273081703091 
0.2613524907157037 
0.8396813475112255 
-0.385830942187947 
0.3584933054641218 
0.2483228167189241 
0.430537604680712 
0.1117602553289577 
-0.1346249931774273 
-0.3031284364388522 
-0.4759164344283824 
0.1420215615215568 
-0.04763497530560895 
-0.4137371142869417 
0.08709684893169468 
0.5211060121858441 
0.4766326717917643 
-0.3075256353782829 
0.0988781354015453 
0.04222442820593028 
0.6226248589807779 
-0.2112634270167558 
0.4380863695564782 
-0.2474098963529583 
0.1588508194178787 
0.2090579738108525 
-0.04590206930814741 
-0.07194461684602793 
0.3539098072883309 
-0.10757073485268 
-0.3051130817781917 
0.6184218311452552 
-0.1348294930951643 
0.09295613951320827 
-0.02324963785778249 
0.1527339480958488 
-0.2276955129276506 
-0.3337690744032973 
0.4065384829599781 
0.3156962196069036 
-0.0318414133988823 
-0.2905885111984984 
-0.1375827356258268 
0.04933134194073236 
0.1307947170100361 
0.0603490805342812 
-0.1263639087916082 
0.6103011920965861 
-0.4902804313360816 
0.5238031316302737 
-0.1134141472200497 
0.1138215378598704 
0.6160497211656576 
0.4826186942218935 
-0.2465848293455981 
0.6533145826333216 
-0.1828396687584156 
0.6388537756985011 
-0.383879969929488 
0.1268143181974325 
0.2798019266897366 
0.1466064277887273 
0.6411226516252181 
0.3449716656757861 
0.0299098450508928 
0.4603540356532485 
-0.02833776495389906 
0.2867534292740798 
-0.4361869504333861 
-0.05943235097241215 
-0.1033729008428648 
-0.7424442292450664 
0.4421518676520002 
0.1549408854382462 
0.1990421073558048 
0.1158515812893509 
-0.3334322393388747 
0.2718931056080037 
0.4082663617928987 
-0.4184112584973435 
0.2154249463433715 
0.4117966692884923 
-0.4135133369052918 
0.2448514527563236 
0.2372436383514482 
0.1384423059880004 
-0.3387525301313831 
-0.3333808835779623 
-0.1285022310480346 
0.7022741734983469 
0.6643073957277559 
-0.2616886995500246 
-0.1687351562668334 
-0.5114233351822999 
-0.01559479022136054 
0.3406115991708268 
-0.08261096698584738 
0.1018889353147817 
0.3474432914539937 
-0.3997021199324852 
-0.4858197764012844 
-0.3589624567566817 
0.3069791890721743 
-0.3582256597157903 
-0.1309768349070999 
0.4336196241298724 
0.2302952355482063 
0.272418203195721 
-0.1966359263062938 
-0.11266988879023 
0.3390161660961594 
-0.2167479102173371 
0.1810027031850025 
0.338316631311245 
-0.1206276850255726 
-0.373421883683912 
-0.2354711344843161 
0.3088593114061872 
0.1160526414399796 
0.1648563503921056 
-0.4821395260921461 
-0.101888522001209 
-0.5422547777587113 
-0.09552376767201484 
-0.1648873137793419 
-0.3314840230927197 
0.4339107017703531 
0.05958591872160415 
0.1748180182005456 
0.7868080910926298 
0.5454567073548484 
0.3947863405136585 
-0.3812715479689501 
-0.1589117584055964 
0.2939343973691733 
0.01135443263047661 
-0.7433138946824218 
-0.06010392309172422 
-0.07620341303769648 
0.3351624781493462 
0.7166850841184287 
0.3021160136840788 
0.3262208181429931 
-0.07930774929602519 
-0.0375238508433767 
0.304851154227105 
-0.5201690315559055 
-0.4659035669397213 
-0.2321402347393892 
0.1537290596628867 
0.4418446363487076 
0.1748483373266894 
-0.2150953276304541 
0.2218444069406479 
-0.1161760734942419 
-0.08136491062662343 
0.2117800061318955 
-0.01889507522130904 
0.2694516051415036 
0.4349024035565102 
0.2960341885385493 
-0.5877308652220756 
-0.4141165784721261 
-0.504012497845657 
-0.1023898297386381 
-0.04922206493205748 
-0.2681838591105 
-0.1316149495109583 
-0.09366787184412245 
0.1454769557989993 
0.3883336482634316 
0.3116138884635486 
0.3564918582644172 
0.6606447374761957 
0.05557562181088071 
-0.004399270154957807 
0.4404562051940156 
-0.15428011176253 
0.6000408077087716 
-0.03150147869976225 
0.5270852665809298 
0.5004588170866082 
-0.3915018451847436 
0.6348978279476724 
0.1258850198938766 
-0.2426506748928456 
-0.1290475674716117 
-0.2080099867974203 
0.8820304929852598 
0.5582303433157003 
0.006709743475086113 
-0.1949850034708345 
0.1127497107045255 
-0.03705910153746534 
-0.3793740225583141 
-0.4160483204762019 
0.5523180196093944 
0.1563131346445652 
0.1256391416308439 
0.2207853091488244 
0.2363074353362288 
0.1477165653286102 
0.4825468930839001 
0.8480149666954857 
0.1634042750421962 
-0.132873210595578 
-0.7296498126089235 
-0.06063218725355222 
-0.202248113448843 
0.005051743336165149 
-0.1054975844004475 
-0.0117943393113363 
0.2442755010026629 
0.01579539082617723 
0.0473145975867966 
0.3658739492853015 
0.2836476225352829 
-0.31170105690417 
-0.3384465389726232 
0.5671212609366738 
0.1287531529266404 
-0.2270895951266315 
-0.3321694836867679 
-0.0764932917608427 
-0.0105498525576222 
1.134962171322016 
0.1999481315889385 
0.1561528124632497 
0.2588970432786242 
0.1271809787798145 
-0.1531451563478653 
-0.1594361685061964 
-0.1611638919857852 
-0.4123022162596356 
-0.2476489377142733 
0.2162341554876638 
0.2981078453045477 
-0.2782403984210757 
0.4770892959319488 
-0.1223441595905842 
-0.279396770058435 
0.3245635056798457 
-0.01850822761480195 
-0.1028982137229381 
0.06984037782783195 
-0.06071289724553895 
0.3812229441010589 
0.06054970854855998 
-0.4458560858256886 
-0.4213914153384951 
0.3824110857455227 
0.03972193205882699 
-0.7072631369568769 
-0.03043614760945648 
-0.02603573271467886 
0.01926554139495654 
0.03179600191967455 
-0.1792123780965893 
-0.2095250286216375 
0.5384470354709844 
-0.1513830002714305 
-0.04710858621301577 
-0.2858076377914646 
0.2236132158866175 
-0.6804045010328681 
-0.3034845836401712 
-0.4001851478281022 
-0.02089226700069205 
0.01531353193008525 
-0.5538081563274406 
-0.4704235868539061 
0.6151744815374871 
-0.3370167663300077 
0.2767094013447857 
0.07727693021147551 
-0.7222316500545319 
-0.2347300936219663 
-0.1913093520124856 
-0.6295947558948265 
-0.3521845291511517 
-0.1816812179003131 
0.4143296078507906 
0.5069609642473275 
0.1386502397471387 
-0.09038701841885546 
0.166794372245799 
0.5871690429349148 
0.4759971401928537 
-0.01743160238897776 
0.2153074788621989 
0.3315977173484865 
0.156427441839303 
0.1130543074365891 
-0.003025198837276324 
-0.3071923014539202 
0.695092645233772 
-0.03903791140079277 
0.449770550915796 
0.2240458336572682 
-0.2380730073520011 
0.4936910776845422 
0.7478293392755464 
-0.5861192673621722 
0.2711790714655851 
0.3274707250652397 
-0.3593883199022111 
-0.4762046725622866 
0.2729467953338369 
-0.1513455817697999 
0.5166612710435232 
0.2426196423821924 
0.09290708235345371 
0.3093139586278248 
0.2857722758248967 
0.4979428846272256 
0.2775834862336416 
0.1664052542941471 
-0.1367412689908858 
0.2972886809013279 
0.3533366412121952 
0.1020711238649118 
0.3248569045617918 
0.3613817602190587 
-0.5244488337063764 
-0.2408075341907844 
0.380483917767876 
-0.8943715832408836 
0.350321591534958 
0.09540751266686481 
0.1367505254305 
0.06984408061722247 
0.3941507295182464 
-0.2358051025528387 
0.06863636203520716 
0.005059090929794757 
0.1599564337959469 
0.1059324554416906 
0.1462889961232922 
0.357210197157437 
0.1914846140556381 
0.1122070564022875 
0.3451625504660925 
-0.4033624035203544 
-0.3211585463021013 
-0.0563356875791623 
0.3938419838755131 
0.2981309168255955 
-0.631619347453526 
0.2492660898605122 
0.2907891689765758 
0.1941490181183414 
0.3246702481147353 
0.08061217694616937 
-0.514696590614513 
0.1897565351720266 
-0.9900475911507137 
0.1686424094197377 
-0.2533664840637944 
0.02212579934954043 
-0.2684282169538865 
0.6621737107378225 
-0.601716560237589 
-0.555957741928559 
0.0866723699592791 
0.002576313101089356 
-0.2578601343119833 
0.1047837556694239 
-0.216972445822005 
0.7039600878940154 
0.1537226627189579 
-0.03108809775397386 
-0.4558829066721743 
-0.2621619524808574 
0.1609336653474341 
0.2065635647212473 
0.8477188044310018 
0.3217241905986702 
-0.214169951768737 
-0.1092564842600387 
0.1453716083257792 
0.04043107552303801 
-0.1837699942527782 
0.1570369753674326 
0.1632888005330279 
0.07277460447144196 
-0.166346501414681 
-0.201131883734088 
-0.3804777580573895 
0.01481010475858722 
0.3470914123561458 
0.07770040617658386 
-0.0644910471129448 
0.3942235716307521 
0.02825027429251384 
0.3570657055680357 
-0.8702696209947897 
0.2812508578239509 
0.9996202774599938 
0.1803968307811474 
-0.2086028425927 
0.3281720742492855 
0.1724233687907168 
0.1953325835352901 
0.5446824576853252 
-0.2915496691026456 
0.1248521431960652 
0.1760997133927624 
0.5389186736394838 
-0.2601179049193226 
0.4240579315408733 
-0.2999232337180543 
0.8917594672193292 
0.1395481077566554 
-0.1521670333958591 
0.3869019135549662 
0.09241195645609411 
0.4110264076864124 
-0.1892395749191645 
-0.5895658430581985 
0.1781448164788271 
0.1893687991587625 
-0.2907931408617827 
-0.7397278878820398 
0.101267349673978 
0.5914483768837631 
0.04138694161571968 
0.2761425693345811 
0.0644655411659015 
0.4082003350397775 
0.1124631287704724 
-0.170216704428888 
0.1455258642334634 
-0.1240704063359258 
-0.006428180631506034 
0.02738293589937722 
0.004180000447935192 
-0.09817332271396584 
0.3615921420047244 
0.1032164823958104 
0.4891318587023178 
-0.08638488841612013 
-0.2474648171042359 
0.06684657371953343 
-0.2552564452719133 
0.05726908196414807 
-0.1766553108851794 
-0.1125923052946046 
0.1269992681747721 
-0.8140695046780244 
0.2705349661637456 
-0.4196108313505209 
-0.331193355769239 
0.09614063737522148 
0.08994656051228926 
0.1711203914763468 
-0.08078837236883553 
0.1194490854088665 
0.1628582277023404 
-0.3071867981164333 
-0.008394048387369069 
0.2646581492034942 
-0.1031379175323331 
-0.1886793658378692 
0.6641254814065773 
0.9888123545175278 
0.1641789964535853 
-0.2469645127199593 
-0.529281319050906 
0.5245701545084744 
0.1930500558311987 
0.1997886703041395 
0.1921965249486624 
0.2976385847211168 
0.530264295130777 
0.6924160305284139 
0.362602042681573 
0.3596453099097535 
0.6310094810988811 
0.7384080458045262 
0.2696489344683503 
0.4595476388620627 
0.1656590722387057 
-0.0551791166348647 
-0.3310795302182175 
0.2298695939580412 
0.1703891187716838 
0.2056841769218473 
0.3418519268507612 
0.6060302705823502 
0.2212447029761437 
0.0659964840268696 
-0.157316710697322 
-0.08660301120640421 
-0.2565385510814165 
0.1878973524997853 
-0.1975272323147479 
0.4148311742276651 
0.1544289414108623 
0.226678359282485 
-0.011380870640129 
0.6257131765023063 
-0.273816161943425 
0.05313349403208105 
0.1519902547465277 
-0.466766031031159 
-0.1817295317515392 
-0.0291664882541328 
0.1293787187306165 
0.4893325015007258 
0.01400383378343559 
-0.2063022747648036 
-0.1556305663003989 
0.02217765437717134 
1.260100859181924 
-0.2871366939418138 
0.1278585205851434 
0.5720656537701836 
0.5114842266486438 
0.8539570541693448 
0.5603413613956139 
0.7057650738227068 
0.2160833481155163 
-0.2921846646960535 
-0.4837419978457267 
0.1099615817904586 
-0.299425175698033 
0.07646373055118923 
0.2429609093645198 
-0.1633449407108256 
0.7440712981438824 
0.5595611193394501 
-0.1731792823588618 
0.09694382884904543 
-0.1020168607282463 
0.2623178686687334 
-0.7337401273208306 
0.8204394023196386 
0.2020055974711402 
-0.1687269877165697 
0.2364896403670008 
0.7996900807646867 
0.2831954243877068 
-0.03683003003660894 
-0.4461513449105107 
0.3601860286376589 
0.05073280163529044 
0.1808654232293809 
0.3094761143115675 
0.5524849846352757 
-0.1789285298691857 
-0.02271188816582904 
0.3546046468977848 
0.4110133670476683 
0.4105540686490626 
0.2135131934090771 
0.2426149182623461 
-0.08177578117822502 
0.3736193430132681 
0.08978120533433225 
-0.08572866402166129 
0.6738462161029546 
0.572718654870236 
0.1615973454460949 
-0.5791753189874072 
-0.3142475543199567 
0.6069155713790418 
0.004664939036658072 
0.02665657788997801 
-0.1986484125407336 
-0.5126485963462494 
-0.3559674880788059 
-0.09004141775641561 
0.1301495292002459 
0.3777705911114845 
-0.6731229333391059 
0.1594430777280272 
0.07260040935160809 
0.2519272956407481 
0.5109446029459527 
0.1685390893461678 
-0.4798062746032355 
0.4238013705790443 
-0.08426248314407794 
0.1494781286827015 
0.06598721109777615 
-0.8180061359466984 
-0.01286236972637727 
0.3842422524081996 
0.4674378388917995 
-0.2386472839660488 
0.223935384818454 
-0.1306012267874572 
-0.6230736824732178 
0.07681643804635463 
-0.1918255481442134 
-0.3271206525155162 
0.4280817476133795 
-0.4068866776305786 
-0.6081099924080692 
0.006835667870229406 
0.04751155731510125 
0.5123567758075468 
-0.5492030036877315 
-0.6524112501066601 
0.04797949405619582 
0.3065784490374984 
0.1678780825703391 
0.02334427733549425 
-0.07139782075623494 
0.1415544256032877 
0.003751567554407118 
-0.3325034288674439 
-0.1267258810949571 
-0.05644307384295535 
0.02060538135813188 
0.05411354959147345 
-0.302922955170201 
1.035723399903575 
0.228667055372423 
0.1168866458842933 
-0.495222809039282 
0.3802629381903346 
0.06550216422005195 
-0.1588366615326515 
0.007226430611698392 
-0.4048877797967583 
0.5150805118286722 
0.06312173428565407 
-0.1034817453663807 
0.1006682844055614 
0.1641600467754694 
-0.4535616951608953 
-0.1025198574925911 
0.3490195304098814 
-0.3733814862696085 
0.1046534132855391 
-0.13013481837744 
-0.48574393363109 
-0.2362316743687538 
0.2905165862594686 
-0.1938826470166626 
-0.5729924205999222 
-0.01877633130646201 
-0.1611106459865812 
0.8904925002203524 
0.05731556402740833 
0.4584496721641685 
0.5558757141891391 
-0.3803565935526111 
-0.6007574325294642 
-0.4051513322232983 
-0.02981412608767724 
-0.3368965918884525 
-0.1514566437945326 
0.4745878202790845 
-0.6547731163009669 
-0.4802208886875551 
-0.3158534474035176 
-0.2775061091780545 
0.1475769263170972 
-0.2235206127821211 
0.1277622525705135 
0.1050368704970182 
0.3454200333290297 
-0.0457474803332662 
-0.6093056402256277 
0.6306906537619854 
-0.6101013848283702 
-0.363433234306462 
0.2026447931768781 
0.175772062994462 
0.4480028060454153 
0.5710539858183926 
0.08841271206602075 
0.1508715623723473 
-0.6879787463288665 
-0.09154738844727311 
0.1867066176980063 
0.13102030956366 
0.5456075385680726 
-0.08087341370783196 
0.4045666786625955 
0.2829199061379986 
0.00514675630368526 
0.001484250086297913 
-0.160982076315753 
0.430805064909497 
0.11190308279958 
0.3113627810671412 
0.2577422759808909 
-0.1760958462750943 
0.3065835946499581 
-0.3201363125616726 
0.3276418432797606 
0.2897725995219435 
-0.3205952906628302 
0.2364898856123133 
-0.1617940630981885 
-0.6086806119437181 
0.08808165723006112 
0.2276439243522494 
0.7805747482934928 
0.1881167468324485 
0.002192623675471989 
0.4890241601041839 
-0.7874154185156643 
0.03889013392872243 
-0.3240382211786753 
-0.2368613409347132 
-0.01859093542310808 
0.1145595601558255 
0.1263533408014546 
0.09735584594428148 
0.583642632942639 
-2.900616984138904e-05 
-0.1183771125777734 
-0.4250263619013239 
0.1293153509206039 
-0.1607180792448213 
-0.04869636749304253 
-1.007340359316274 
-0.3327597220044253 
-0.38636387014081 
0.3960176750329146 
-0.1644650950456173 
0.0184596688307071 
-0.3007539685488053 
-0.2502895046739511 
-0.655238302812718 
0.1115270067610694 
0.1094606722512628 
-0.2026129676783452 
-0.32826643375616 
0.1107452599950006 
0.0998057897970103 
-0.1430897523557745 
-0.06133252415674734 
-0.05519671405361523 
0.1311063284160426 
-0.201477868529861 
-0.1661921050296521 
0.5522276796397213 
-0.1275608002332949 
-0.06567349648899302 
0.3775154307573637 
-0.2930807329209527 
0.2731844113062339 
0.1612832820356042 
0.8463998258401675 
-0.39743272157962 
0.2321698114003546 
-0.4409535980019061 
-0.4826024379350495 
0.5918571871887359 
-0.3826062046992935 
-0.03308237340328581 
-0.107729541928112 
0.02012565013142353 
-0.2331648655622457 
-0.6163072679589598 
0.214385576336535 
0.02539207035111485 
0.3058830405394787 
0.2402288586519503 
-0.08450973052830152 
-0.1559761538391139 
0.4210182623057133 
-0.08907767847694961 
0.3577494821089363 
-0.2453863697359198 
-0.04235331533380077 
0.8139998000999948 
0.08321399416624387 
0.07647224148879858 
0.2556642052744579 
-0.1114240718493404 
-0.09308968678879354 
-0.1887476771268373 
-0.2514807444069371 
0.2572469419400568 
-0.0201433855698786 
0.1236181642960968 
0.01481928606134647 
-0.1765176346660939 
0.1842336016856947 
-0.78742330882022 
0.07221301787377027 
0.5895097439019165 
0.01755027534111159 
0.02745808818105058 
0.217344170105615 
0.4009352279646851 
0.3689955077284034 
0.2383282872233233 
-0.4527656494258417 
-0.1843513650437465 
0.3714572401220668 
0.2245332560778634 
0.10810524732396 
0.06464098334405301 
0.3797513342290129 
-0.4597746870125252 
0.2832501244421161 
0.09010133151893435 
0.04450971287664938 
0.3721861315070679 
0.3590631693637923 
0.2893866717878046 
-0.2636057319522805 
-0.2451381173477263 
-0.2709735588019937 
0.8312700573177872 
0.4286796830912666 
0.5845275890350901 
-0.1112288897518706 
-0.1912642864462842 
0.1797904776759296 
-0.1330938343622666 
-0.1136464067824118 
-0.0840727219077141 
0.4429932782370804 
0.09219619504107507 
-0.2953658852702324 
-0.151749258094873 
-0.2898681037726002 
0.08573448678097484 
0.4640375126836067 
0.4157703418306702 
-0.144271869856636 
-0.08721016547376868 
0.2742438239147068 
0.2391352777736856 
-0.2862800483938548 
0.1646681825421819 
-0.1882975512507788 
-0.3413407364653178 
-0.0357651924146338 
0.5416837011692227 
0.2602068894010764 
0.357330188552493 
0.4689764101102196 
0.2299466510285437 
-0.291290657682173 
1.023404649491517 
0.08168243826214414 
0.2132305266183071 
-0.2793723420760671 
0.1550907569280737 
-0.002616111730867855 
-0.3123747839922559 
0.2480338749766585 
-0.2772089493852419 
-0.1362649898382653 
-0.5371157528990573 
0.9241076768775563 
0.3542461849919495 
0.4684856686026891 
-0.002409390834590075 
0.05533060720353267 
0.3610785280691667 
0.5153386330130489 
-0.195813827540721 
0.1237205736973349 
-0.4420390347679806 
0.847450706753935 
-0.2143540839352305 
0.1857678268716066 
0.3778772346681366 
0.05359945217455522 
0.2278514097423179 
-0.6293314900697646 
-0.2683580552856319 
0.3658650275598343 
0.01253854107489724 
0.02300912257859375 
0.3186050260518964 
-0.4016993158930205 
0.1243534402708349 
-0.3293566249713152 
-0.006068457839858432 
-0.173968094212845 
0.1022130626028783 
0.4159959216481442 
0.1350430710119848 
0.8003233789817115 
-0.08222864815574234 
0.009908759931314903 
0.5871657092451114 
0.120191811998023 
0.2383759605355964 
0.5699698605061938 
-0.6612187518572196 
-0.04237151755632501 
0.05685464823248364 
-0.5225787641454902 
-0.2792950563470217 
0.06879513609269584 
0.2439401382385388 
0.4724991057889599 
-0.4489575298087315 
-0.6680755496495399 
0.4885879847197163 
0.4048519057166146 
0.06749006298108502 
0.9108306123705485 
0.3143220010815435 
-0.09657442230749458 
-0.4145618004362837 
0.4644020339934959 
-0.3539857377319177 
-0.2107171564969452 
-0.5445277187062191 
-0.2943871041040775 
-0.3308569167761141 
0.8686894688921378 
0.9554337553664354 
0.13275045011828 
0.02526425825547762 
-0.06565455088747296 
-0.03194238728578902 
0.06407569319135087 
-0.3556038342125284 
0.784994271283083 
0.1267873732035273 
0.3134957310726729 
0.5941907598800086 
-0.09673325342167241 
0.1814278316326645 
0.1967048667367883 
0.4347191806204687 
-0.231100380141215 
-0.2609818689718001 
0.3402755546767729 
-0.2954788297443638 
0.4288838724993707 
-0.4874472652761214 
0.07673267996197788 
0.01662224264885476 
-0.5088942052857939 
-0.0990154885986177 
0.01866859835573943 
0.3957434271999227 
0.2321153245748265 
-0.351060974476767 
0.591323717012277 
0.5316283685609271 
-0.1693264510613587 
0.5562886478930843 
0.2557224645603288 
0.3414478484257952 
-0.3400632074261157 
-0.1730414402925471 
0.1186060977042882 
-0.211356602931473 
-0.05824624345404422 
0.2079531944197148 
0.2127203746404631 
-0.1613946838663247 
0.1482891075139051 
0.1157680724023679 
0.1488180435019704 
-0.4766357460580654 
-0.06267164213285854 
-0.162168960875551 
-0.07813094035616075 
-0.4518360544119838 
0.0006951359113810014 
-0.2640149353674531 
0.4533418737499808 
0.2522139038495474 
-0.3789396446041 
0.3454445482529964 
0.4109637654135869 
0.294407585707919 
0.681710042760622 
-0.290467739204103 
0.0583311478922411 
0.2455091186686889 
0.1034322471455353 
0.3092910132778544 
0.4858083347726286 
-0.329049427519722 
-0.1324096925985382 
0.1725044755762246 
-0.1850501492498195 
0.390619550382463 
-0.3826511453725811 
-0.4342422320121812 
0.2653037227309573 
-0.1794478140073624 
0.5045981870011199 
-0.2729540930608167 
-0.1016126144489203 
0.1829117278368937 
-0.253225761058324 
0.3204834124185931 
-0.2316308112903827 
0.1181135200182211 
0.1793767756743595 
-0.2014543519790899 
0.3626997323540654 
0.004312635111933971 
0.02579662508885512 
0.4457173822370462 
-0.1819010064412625 
0.05260335563178671 
0.5197974975050811 
0.2563260630635754 
0.2877849570428458 
0.07478396410255952 
0.2435673886242513 
0.9687496690529835 
-0.1803828236982684 
-0.1555331091761065 
-0.6642947399794833 
0.3842277113625159 
-0.05075529353044692 
-0.1422067425750259 
-0.1818509311971589 
0.003572189911367971 
-0.3249821200399598 
-0.04279487883748563 
-0.7127673165361874 
-0.1087454195296526 
-0.3243533001844444 
0.260388890573635 
0.3072982157516508 
-0.3438920217026191 
0.2457255752899113 
0.002944881309425884 
-0.3055617044804602 
-0.5040820560411648 
0.7738340727287656 
0.4023428922349623 
-0.3419857126363101 
-0.2229071488895119 
0.3983953109440648 
0.2826102605427485 
-0.03657565545834141 
0.5272439687058534 
-0.468637658336879 
0.173435380532208 
-0.0875444605664526 
0.1800673384877006 
0.6025949045007541 
-0.07387388011609054 
-0.1525551431356078 
1.249149426292763 
0.303336519562128 
0.2102047171294075 
0.1773265938226333 
-0.1979295246609455 
-0.7022459233426561 
0.2614422554086882 
0.9507594463634312 
0.6240070399983401 
0.9784250307603126 
0.4557901617742255 
-0.5264055293968458 
0.6903680985540456 
0.4846492083827895 
0.4272853859902986 
-0.5361139971092432 
-0.3735200872994354 
-0.5471550285009976 
-0.1954395506679116 
0.538901095821321 
0.01938250327380329 
0.2406161110766596 
-0.06698090977425035 
-0.4498182571869765 
-0.2115541559837078 
0.826159740683005 
-0.2457652659153514 
-0.03921967106595314 
0.8514712069043944 
0.05523045396881374 
0.5406421304286843 
-0.08972914429409637 
-0.3794140494149051 
-0.02243998232047495 
-0.9515509210092417 
0.4681836759887774 
-0.0164147301238235 
-0.08615251692718746 
-0.6963387450813532 
-0.2733368300056339 
-0.006511021281450563 
0.2990684186336463 
-0.2315955546268215 
-0.2872080271863534 
-0.07401348493022369 
0.1421837606143 
0.3251927939057896 
0.1841856063216676 
0.4568729160293138 
-0.1688866836817922 
0.3189528631000841 
-0.5517715074944394 
0.02709245878443522 
0.3649475454535951 
0.01468447170774555 
-0.7082456042791119 
0.1168901415913596 
-0.4072259656496753 
-0.4245511871904218 
0.05291084150053638 
0.2813653362253236 
0.6105146237047666 
-0.1776880873898148 
-0.1215648691661154 
0.08273103072049748 
-0.009422330623281072 
0.105052914658098 
-0.07060841886417657 
-0.03053801006931139 
0.1264441804688423 
0.2028475105191926 
0.5185872518548602 
0.01804874977074827 
-0.3810135210882131 
0.4603190765085512 
0.1692871331050602 
0.09886279023952996 
0.04432600119128514 
0.1727705796676465 
-0.236408265800256 
0.2047018072466735 
0.2422374594443118 
0.6250395019233215 
-0.4296347354885075 
0.02490049284533097 
0.1287462911085648 
-0.4292042830876223 
-0.1293518684142866 
-0.002651171324101934 
0.3713140966642186 
-0.09243637362983795 
-0.044821732492046 
0.1487591093756222 
-0.2019190918292289 
0.8932999889067564 
-0.3183464135825607 
0.2477757323702623 
-0.1600787271305406 
-0.318889540710628 
-0.02397061821452103 
0.4238925699398286 
0.4139294005014985 
0.01039490811946015 
0.1667769388101031 
0.07217470974328302 
-0.1698406491421264 
0.5519764828987062 
0.485940703950996 
-0.04564112401131057 
-0.05962410427628353 
-0.1989527125891504 
